<?xml version="1.0"?>
<opencv_storage>
<my_svm type_id="opencv-ml-svm">
  <svm_type>C_SVC</svm_type>
  <kernel><type>RBF</type>
    <gamma>5.0625000000000009e-001</gamma></kernel>
  <C>3.1250000000000000e+002</C>
  <term_criteria><epsilon>1.1920928955078125e-007</epsilon>
    <iterations>1000</iterations></term_criteria>
  <var_all>400</var_all>
  <var_count>400</var_count>
  <class_count>2</class_count>
  <class_labels type_id="opencv-matrix">
    <rows>1</rows>
    <cols>2</cols>
    <dt>i</dt>
    <data>
      -1 1</data></class_labels>
  <sv_total>58</sv_total>
  <support_vectors>
    <_>
      0. 0. 0. 2.18978096e-002 0. 7.29927002e-003 0. 0. 0. 0.
      7.29927002e-003 2.18978096e-002 0. 0. 0. 7.29927002e-003 0. 0.
      7.29927002e-003 0. 0. 0. 0. 0. 7.29927002e-003 7.29927002e-003
      7.29927002e-003 7.29927002e-003 0. 0. 0. 0. 7.29927002e-003 0. 0.
      7.29927002e-003 2.18978096e-002 7.29927002e-003 0. 0. 0.
      7.29927002e-003 7.29927002e-003 0. 0. 7.29927002e-003
      2.91970801e-002 7.29927002e-003 0. 7.29927002e-003 0. 0. 0. 0. 0.
      7.29927002e-003 0. 0. 0. 0. 7.29927002e-003 0. 7.29927002e-003
      2.18978096e-002 0. 7.29927002e-003 7.29927002e-003 0. 0. 0. 0. 0.
      0. 0. 0. 7.29927002e-003 0. 0. 0. 0. 0. 7.29927002e-003 0. 0. 0.
      7.29927002e-003 1.45985400e-002 0. 0. 0. 0. 1.45985400e-002 0. 0.
      0. 1.45985400e-002 7.29927002e-003 7.29927002e-003 0.
      7.29927002e-003 0. 0. 0. 0. 0. 0. 0. 0. 0. 0. 0. 0.
      7.29927002e-003 0. 0. 0. 7.29927002e-003 0. 0. 0. 7.29927002e-003
      0. 7.29927002e-003 7.29927002e-003 7.29927002e-003 7.29927002e-003
      0. 0. 0. 7.29927002e-003 0. 0. 0. 1.45985400e-002 0. 0. 0.
      7.29927002e-003 0. 7.29927002e-003 0. 0. 0. 7.29927002e-003
      7.29927002e-003 7.29927002e-003 7.29927002e-003 0. 1.45985400e-002
      1.45985400e-002 0. 0. 0. 7.29927002e-003 0. 0. 0. 0. 0.
      7.29927002e-003 7.29927002e-003 0. 0. 7.29927002e-003 0.
      1.45985400e-002 0. 0. 0. 7.29927002e-003 0. 0. 1.45985400e-002
      7.29927002e-003 0. 0. 0. 7.29927002e-003 0. 0. 0. 0. 0.
      2.18978096e-002 0. 0. 0. 0. 0. 0. 0. 0. 0. 0. 0. 7.29927002e-003
      0. 0. 7.29927002e-003 0. 0. 0. 0. 7.29927002e-003 0. 0. 0. 0. 0.
      0. 0. 0. 7.29927002e-003 0. 0. 0. 0. 0. 0. 0. 0. 0. 0.
      7.29927002e-003 0. 7.29927002e-003 0. 7.29927002e-003 0. 0. 0. 0.
      0. 0. 0. 0. 7.29927002e-003 7.29927002e-003 0. 0. 0.
      7.29927002e-003 2.18978096e-002 0. 7.29927002e-003 0. 0. 0. 0.
      7.29927002e-003 0. 7.29927002e-003 0. 7.29927002e-003 0.
      7.29927002e-003 0. 0. 0. 2.18978096e-002 7.29927002e-003 0. 0. 0.
      0. 0. 0. 0. 0. 0. 7.29927002e-003 0. 0. 7.29927002e-003 0.
      7.29927002e-003 0. 0. 0. 0. 0. 0. 0. 0. 0. 0. 0. 0. 0. 0. 0.
      7.29927002e-003 0. 0. 0. 0. 0. 0. 0. 0. 7.29927002e-003
      1.45985400e-002 0. 0. 0. 0. 7.29927002e-003 0. 0. 0. 0. 0. 0. 0.
      7.29927002e-003 0. 0. 0. 7.29927002e-003 0. 0. 0. 7.29927002e-003
      7.29927002e-003 0. 0. 0. 0. 0. 7.29927002e-003 1.45985400e-002 0.
      0. 0. 0. 7.29927002e-003 0. 0. 0. 7.29927002e-003 0. 0. 0. 0. 0.
      0. 7.29927002e-003 7.29927002e-003 0. 0. 0. 0. 0. 0.
      7.29927002e-003 0. 0. 7.29927002e-003 0. 0. 0. 0. 0. 0. 0. 0. 0.
      7.29927002e-003 0. 0. 0. 7.29927002e-003 7.29927002e-003 0.
      7.29927002e-003 0. 0. 0. 1.45985400e-002 0. 0. 0. 0. 0. 0. 0.
      7.29927002e-003 1.45985400e-002 0. 7.29927002e-003 0. 0. 0. 0. 0.
      0. 7.29927002e-003 0. 0. 0.</_>
    <_>
      6.99300691e-003 0. 1.39860138e-002 6.99300691e-003 0. 0.
      6.99300691e-003 0. 0. 0. 0. 0. 0. 0. 0. 6.99300691e-003 0.
      6.99300691e-003 0. 0. 0. 0. 0. 0. 6.99300691e-003 0. 0. 0.
      6.99300691e-003 0. 6.99300691e-003 0. 6.99300691e-003 0. 0.
      6.99300691e-003 0. 0. 0. 6.99300691e-003 0. 0. 0. 0.
      2.09790207e-002 6.99300691e-003 2.09790207e-002 6.99300691e-003 0.
      0. 6.99300691e-003 0. 1.39860138e-002 6.99300691e-003 0. 0. 0.
      6.99300691e-003 0. 0. 6.99300691e-003 6.99300691e-003 0. 0. 0.
      1.39860138e-002 6.99300691e-003 0. 0. 6.99300691e-003 0. 0.
      6.99300691e-003 0. 0. 1.39860138e-002 0. 6.99300691e-003
      6.99300691e-003 0. 0. 6.99300691e-003 0. 0. 1.39860138e-002 0. 0.
      0. 0. 0. 0. 0. 0. 6.99300691e-003 1.39860138e-002 1.39860138e-002
      0. 0. 0. 0. 0. 6.99300691e-003 6.99300691e-003 6.99300691e-003
      6.99300691e-003 6.99300691e-003 0. 6.99300691e-003 0.
      1.39860138e-002 0. 0. 0. 0. 1.39860138e-002 0. 6.99300691e-003 0.
      0. 0. 0. 0. 0. 0. 0. 0. 0. 6.99300691e-003 0. 0. 6.99300691e-003
      0. 0. 0. 0. 0. 6.99300691e-003 0. 0. 0. 0. 0. 6.99300691e-003
      6.99300691e-003 0. 0. 0. 6.99300691e-003 0. 0. 6.99300691e-003
      6.99300691e-003 0. 1.39860138e-002 6.99300691e-003 0. 0. 0.
      6.99300691e-003 0. 0. 0. 0. 0. 0. 1.39860138e-002 6.99300691e-003
      0. 0. 0. 6.99300691e-003 0. 0. 0. 0. 0. 0. 1.39860138e-002
      6.99300691e-003 0. 0. 0. 0. 0. 0. 6.99300691e-003 0. 0.
      6.99300691e-003 0. 0. 6.99300691e-003 0. 0. 0. 0. 0. 0. 0. 0. 0.
      0. 0. 0. 0. 6.99300691e-003 0. 0. 0. 6.99300691e-003 0. 0.
      6.99300691e-003 0. 0. 0. 0. 6.99300691e-003 0. 6.99300691e-003
      6.99300691e-003 0. 0. 0. 0. 0. 6.99300691e-003 0. 0.
      6.99300691e-003 0. 2.09790207e-002 0. 6.99300691e-003 0.
      6.99300691e-003 0. 0. 0. 6.99300691e-003 6.99300691e-003
      6.99300691e-003 1.39860138e-002 0. 6.99300691e-003 6.99300691e-003
      0. 0. 0. 0. 0. 0. 0. 6.99300691e-003 0. 0. 0. 6.99300691e-003 0.
      0. 0. 0. 6.99300691e-003 1.39860138e-002 6.99300691e-003 0.
      6.99300691e-003 0. 0. 0. 6.99300691e-003 0. 6.99300691e-003
      6.99300691e-003 0. 0. 0. 0. 0. 0. 0. 0. 6.99300691e-003 0. 0. 0.
      0. 0. 0. 6.99300691e-003 0. 0. 0. 0. 0. 0. 0. 0. 0. 0.
      6.99300691e-003 0. 0. 0. 0. 0. 0. 0. 0. 6.99300691e-003 0.
      6.99300691e-003 0. 0. 1.39860138e-002 0. 0. 0. 0. 0. 0. 0. 0. 0.
      0. 1.39860138e-002 0. 0. 0. 6.99300691e-003 0. 0. 0. 0.
      6.99300691e-003 6.99300691e-003 0. 0. 1.39860138e-002 0.
      2.79720277e-002 0. 0. 0. 6.99300691e-003 0. 0. 6.99300691e-003 0.
      0. 0. 0. 6.99300691e-003 0. 6.99300691e-003 0. 0. 0.
      6.99300691e-003 6.99300691e-003 0. 0. 0. 0. 0. 6.99300691e-003 0.
      0. 0. 6.99300691e-003 6.99300691e-003 0. 0. 6.99300691e-003 0. 0.
      6.99300691e-003 6.99300691e-003 0. 0. 0. 0. 0. 0. 0. 0. 0. 0. 0.
      0. 6.99300691e-003 0. 6.99300691e-003 0. 0. 6.99300691e-003
      6.99300691e-003 0. 0. 6.99300691e-003</_>
    <_>
      0. 0. 0. 0. 0. 0. 0. 0. 6.28930796e-003 0. 0. 0. 0. 0.
      6.28930796e-003 0. 6.28930796e-003 0. 0. 6.28930796e-003 0.
      6.28930796e-003 0. 6.28930796e-003 0. 1.25786159e-002 0. 0.
      6.28930796e-003 6.28930796e-003 0. 0. 6.28930796e-003
      6.28930796e-003 0. 1.25786159e-002 1.25786159e-002 0. 0.
      6.28930796e-003 6.28930796e-003 0. 1.88679248e-002 0.
      6.28930796e-003 6.28930796e-003 6.28930796e-003 1.88679248e-002 0.
      6.28930796e-003 1.25786159e-002 1.25786159e-002 0. 6.28930796e-003
      0. 6.28930796e-003 0. 0. 0. 0. 6.28930796e-003 0. 0.
      6.28930796e-003 6.28930796e-003 6.28930796e-003 0. 0. 0. 0. 0. 0.
      0. 0. 0. 6.28930796e-003 0. 0. 6.28930796e-003 6.28930796e-003
      6.28930796e-003 6.28930796e-003 0. 0. 0. 0. 0. 0. 0.
      6.28930796e-003 6.28930796e-003 0. 6.28930796e-003 0.
      1.88679248e-002 0. 0. 6.28930796e-003 6.28930796e-003 0. 0. 0. 0.
      0. 6.28930796e-003 6.28930796e-003 0. 0. 6.28930796e-003 0. 0. 0.
      6.28930796e-003 6.28930796e-003 0. 0. 0. 6.28930796e-003 0. 0. 0.
      6.28930796e-003 0. 0. 0. 0. 0. 0. 6.28930796e-003 0. 0. 0.
      6.28930796e-003 1.25786159e-002 0. 6.28930796e-003 0. 0. 0. 0. 0.
      6.28930796e-003 0. 0. 6.28930796e-003 0. 0. 0. 1.25786159e-002 0.
      0. 6.28930796e-003 1.25786159e-002 0. 6.28930796e-003 0. 0. 0.
      1.88679248e-002 6.28930796e-003 0. 6.28930796e-003 0. 0. 0.
      6.28930796e-003 0. 0. 0. 0. 0. 0. 0. 6.28930796e-003 0. 0. 0. 0.
      0. 6.28930796e-003 0. 6.28930796e-003 0. 0. 0. 6.28930796e-003 0.
      0. 1.25786159e-002 0. 0. 0. 0. 0. 0. 6.28930796e-003 0. 0. 0.
      6.28930796e-003 6.28930796e-003 0. 6.28930796e-003 0. 0. 0. 0. 0.
      0. 0. 0. 0. 0. 0. 6.28930796e-003 0. 0. 0. 0. 0. 6.28930796e-003
      6.28930796e-003 0. 6.28930796e-003 0. 6.28930796e-003 0.
      6.28930796e-003 0. 6.28930796e-003 0. 0. 0. 0. 0. 0. 0. 0. 0.
      6.28930796e-003 0. 0. 0. 0. 0. 0. 0. 0. 0. 0. 0. 1.25786159e-002
      0. 6.28930796e-003 0. 0. 6.28930796e-003 6.28930796e-003
      6.28930796e-003 6.28930796e-003 0. 6.28930796e-003 6.28930796e-003
      0. 0. 0. 0. 6.28930796e-003 0. 0. 0. 0. 6.28930796e-003
      6.28930796e-003 1.25786159e-002 0. 0. 6.28930796e-003 0. 0. 0. 0.
      0. 6.28930796e-003 0. 0. 0. 0. 6.28930796e-003 6.28930796e-003
      6.28930796e-003 0. 0. 0. 0. 0. 0. 6.28930796e-003 0.
      6.28930796e-003 6.28930796e-003 0. 6.28930796e-003 0.
      6.28930796e-003 6.28930796e-003 6.28930796e-003 0. 6.28930796e-003
      0. 0. 0. 0. 1.25786159e-002 6.28930796e-003 0. 6.28930796e-003
      1.25786159e-002 0. 0. 6.28930796e-003 0. 0. 6.28930796e-003
      1.25786159e-002 0. 6.28930796e-003 6.28930796e-003 0. 0.
      6.28930796e-003 6.28930796e-003 0. 0. 6.28930796e-003 0. 0. 0.
      6.28930796e-003 6.28930796e-003 0. 0. 0. 6.28930796e-003 0. 0. 0.
      6.28930796e-003 0. 0. 0. 0. 0. 0. 6.28930796e-003 0. 0. 0. 0.
      1.25786159e-002 6.28930796e-003 0. 0. 0. 6.28930796e-003
      1.25786159e-002 0. 0. 0. 0. 0. 0. 6.28930796e-003 0.
      1.25786159e-002 0. 6.28930796e-003 6.28930796e-003 0. 0. 0. 0.
      6.28930796e-003 6.28930796e-003 0. 0. 0. 6.28930796e-003 0. 0. 0.
      6.28930796e-003 0. 6.28930796e-003 6.28930796e-003 0. 0. 0. 0. 0.</_>
    <_>
      0. 0. 1.19760484e-002 0. 0. 5.98802418e-003 1.19760484e-002 0.
      5.98802418e-003 0. 0. 5.98802418e-003 0. 5.98802418e-003 0. 0.
      5.98802418e-003 5.98802418e-003 5.98802418e-003 0. 0. 0. 0.
      5.98802418e-003 5.98802418e-003 0. 0. 0. 5.98802418e-003 0.
      1.19760484e-002 0. 1.79640725e-002 5.98802418e-003 0. 0.
      5.98802418e-003 0. 0. 0. 1.19760484e-002 0. 5.98802418e-003
      5.98802418e-003 0. 5.98802418e-003 1.79640725e-002 1.79640725e-002
      1.79640725e-002 0. 5.98802418e-003 0. 0. 1.19760484e-002 0. 0. 0.
      5.98802418e-003 5.98802418e-003 0. 0. 0. 0. 0. 0. 5.98802418e-003
      5.98802418e-003 0. 5.98802418e-003 0. 0. 0. 0. 0. 5.98802418e-003
      5.98802418e-003 0. 0. 0. 5.98802418e-003 0. 0. 5.98802418e-003 0.
      0. 0. 0. 0. 0. 0. 0. 5.98802418e-003 5.98802418e-003 0. 0.
      5.98802418e-003 0. 0. 1.19760484e-002 0. 0. 0. 5.98802418e-003
      1.79640725e-002 5.98802418e-003 0. 5.98802418e-003 0. 0.
      1.19760484e-002 0. 5.98802418e-003 0. 5.98802418e-003 0. 0. 0. 0.
      5.98802418e-003 0. 0. 5.98802418e-003 5.98802418e-003 0. 0. 0. 0.
      5.98802418e-003 5.98802418e-003 0. 5.98802418e-003 0.
      5.98802418e-003 0. 0. 5.98802418e-003 5.98802418e-003 0. 0. 0. 0.
      0. 0. 0. 0. 0. 0. 0. 0. 0. 5.98802418e-003 5.98802418e-003
      5.98802418e-003 1.19760484e-002 5.98802418e-003 0. 0. 0. 0.
      5.98802418e-003 0. 5.98802418e-003 0. 0. 0. 2.39520967e-002
      5.98802418e-003 0. 5.98802418e-003 5.98802418e-003 0. 0. 0.
      5.98802418e-003 0. 0. 5.98802418e-003 0. 0. 5.98802418e-003
      1.19760484e-002 0. 0. 0. 0. 0. 0. 0. 5.98802418e-003
      5.98802418e-003 5.98802418e-003 5.98802418e-003 5.98802418e-003 0.
      0. 1.19760484e-002 5.98802418e-003 0. 0. 5.98802418e-003 0. 0. 0.
      0. 0. 5.98802418e-003 5.98802418e-003 5.98802418e-003 0. 0. 0.
      5.98802418e-003 0. 0. 0. 0. 0. 0. 0. 0. 0. 5.98802418e-003
      5.98802418e-003 5.98802418e-003 0. 0. 1.19760484e-002 0. 0. 0.
      5.98802418e-003 5.98802418e-003 0. 0. 0. 1.19760484e-002 0. 0. 0.
      5.98802418e-003 5.98802418e-003 5.98802418e-003 0. 0.
      1.79640725e-002 5.98802418e-003 0. 0. 0. 0. 0. 0. 0.
      1.19760484e-002 0. 0. 5.98802418e-003 0. 0. 0. 0. 5.98802418e-003
      0. 5.98802418e-003 0. 0. 0. 5.98802418e-003 0. 0. 0. 0. 0.
      1.19760484e-002 5.98802418e-003 0. 0. 0. 5.98802418e-003 0. 0. 0.
      5.98802418e-003 0. 0. 0. 0. 0. 0. 5.98802418e-003 0. 0. 0. 0. 0.
      0. 0. 0. 5.98802418e-003 5.98802418e-003 0. 0. 0. 0. 0.
      5.98802418e-003 0. 0. 5.98802418e-003 5.98802418e-003 0. 0. 0. 0.
      1.19760484e-002 0. 0. 0. 0. 5.98802418e-003 0. 0. 0. 0.
      1.19760484e-002 5.98802418e-003 5.98802418e-003 5.98802418e-003 0.
      1.19760484e-002 0. 0. 0. 0. 5.98802418e-003 0. 0. 0.
      5.98802418e-003 5.98802418e-003 0. 0. 0. 5.98802418e-003
      5.98802418e-003 5.98802418e-003 0. 5.98802418e-003 0. 0. 0. 0. 0.
      5.98802418e-003 0. 5.98802418e-003 0. 0. 0. 0. 0. 0. 0. 0. 0.
      5.98802418e-003 5.98802418e-003 0. 0. 0. 5.98802418e-003 0. 0.
      5.98802418e-003 0. 0. 0. 0. 0. 0. 0. 0. 0. 0. 0. 0. 0.
      5.98802418e-003 0. 0. 5.98802418e-003 0. 0. 0. 1.19760484e-002
      5.98802418e-003 5.98802418e-003 0. 5.98802418e-003 0.</_>
    <_>
      0. 0. 0. 0. 0. 0. 1.78571437e-002 0. 0. 0. 0. 0. 0.
      1.78571437e-002 0. 0. 1.78571437e-002 0. 0. 0. 0. 0. 0. 0. 0. 0.
      1.78571437e-002 0. 0. 0. 1.78571437e-002 0. 0. 0. 0. 0. 0. 0. 0.
      0. 0. 0. 0. 0. 5.35714328e-002 0. 0. 0. 0. 0. 0. 0.
      1.78571437e-002 1.78571437e-002 0. 1.78571437e-002 1.78571437e-002
      0. 0. 1.78571437e-002 0. 0. 0. 0. 1.78571437e-002 0. 0. 0. 0.
      1.78571437e-002 0. 0. 1.78571437e-002 0. 0. 0. 1.78571437e-002 0.
      0. 0. 1.78571437e-002 0. 0. 1.78571437e-002 1.78571437e-002
      3.57142873e-002 0. 0. 0. 0. 0. 0. 0. 0. 0. 0. 0. 0. 0. 0. 0. 0. 0.
      1.78571437e-002 0. 0. 0. 0. 0. 0. 0. 0. 0. 0. 1.78571437e-002 0.
      0. 1.78571437e-002 0. 0. 0. 0. 0. 0. 0. 0. 0. 0. 0. 0. 0. 0.
      1.78571437e-002 0. 0. 0. 0. 0. 0. 0. 0. 0. 0. 0. 0. 0. 0. 0. 0. 0.
      0. 0. 0. 0. 0. 0. 0. 0. 0. 0. 0. 0. 0. 0. 0. 0. 0. 0. 0. 0. 0. 0.
      0. 0. 0. 0. 1.78571437e-002 0. 1.78571437e-002 0. 0. 0. 0.
      1.78571437e-002 0. 0. 0. 0. 0. 0. 0. 0. 0. 1.78571437e-002 0. 0.
      0. 0. 0. 1.78571437e-002 0. 1.78571437e-002 0. 0. 1.78571437e-002
      0. 0. 0. 0. 0. 0. 0. 0. 0. 0. 0. 0. 3.57142873e-002
      1.78571437e-002 0. 0. 0. 0. 0. 0. 0. 0. 0. 0. 0. 0. 0. 0. 0. 0. 0.
      0. 0. 1.78571437e-002 0. 0. 0. 0. 0. 0. 0. 0. 0. 0. 0. 0. 0. 0. 0.
      0. 0. 0. 0. 0. 0. 0. 1.78571437e-002 0. 0. 0. 0. 0. 0. 0. 0. 0.
      3.57142873e-002 0. 0. 0. 0. 0. 0. 0. 0. 0. 0. 0. 0. 0. 0. 0.
      1.78571437e-002 0. 0. 0. 0. 0. 0. 0. 0. 0. 0. 0. 0. 0.
      1.78571437e-002 1.78571437e-002 0. 0. 0. 0. 0. 1.78571437e-002 0.
      0. 0. 0. 3.57142873e-002 0. 0. 0. 0. 0. 0. 0. 0. 0. 0. 0. 0. 0. 0.
      1.78571437e-002 0. 0. 0. 0. 0. 0. 0. 0. 0. 0. 0. 0. 0.
      1.78571437e-002 0. 0. 0. 0. 1.78571437e-002 0. 0. 0. 0. 0.
      1.78571437e-002 0. 0. 0. 0. 0. 0. 0. 0. 0. 0. 0. 1.78571437e-002
      0. 0. 0. 1.78571437e-002 0. 0. 0. 0. 0. 0. 0. 0. 0. 0. 0. 0.
      1.78571437e-002 1.78571437e-002 0. 0. 0. 0. 0. 0. 0. 0. 0.
      1.78571437e-002 0. 0. 0. 0. 0. 1.78571437e-002</_>
    <_>
      0. 0. 6.41025649e-003 6.41025649e-003 0. 6.41025649e-003
      6.41025649e-003 0. 0. 6.41025649e-003 0. 0. 0. 6.41025649e-003 0.
      0. 6.41025649e-003 0. 0. 0. 0. 0. 0. 6.41025649e-003
      6.41025649e-003 1.28205130e-002 0. 0. 0. 0. 3.20512839e-002 0.
      6.41025649e-003 6.41025649e-003 0. 0. 6.41025649e-003 0. 0. 0.
      1.28205130e-002 0. 6.41025649e-003 0. 6.41025649e-003 0.
      2.56410260e-002 1.92307699e-002 6.41025649e-003 0. 0.
      6.41025649e-003 0. 1.28205130e-002 0. 0. 0. 6.41025649e-003 0.
      6.41025649e-003 0. 1.28205130e-002 6.41025649e-003 0. 0. 0. 0. 0.
      0. 6.41025649e-003 0. 0. 0. 0. 0. 0. 0. 0. 0. 6.41025649e-003 0.
      0. 6.41025649e-003 6.41025649e-003 6.41025649e-003 0. 0. 0. 0. 0.
      0. 1.28205130e-002 6.41025649e-003 0. 0. 0. 0. 6.41025649e-003
      6.41025649e-003 0. 0. 0. 0. 0. 1.28205130e-002 0. 6.41025649e-003
      0. 0. 0. 0. 6.41025649e-003 1.28205130e-002 6.41025649e-003
      1.28205130e-002 0. 6.41025649e-003 0. 0. 0. 0. 1.28205130e-002
      6.41025649e-003 0. 0. 0. 0. 6.41025649e-003 6.41025649e-003 0. 0.
      0. 0. 0. 0. 0. 6.41025649e-003 0. 0. 0. 0. 0. 0. 6.41025649e-003
      0. 0. 0. 0. 6.41025649e-003 0. 0. 0. 0. 0. 1.28205130e-002
      6.41025649e-003 0. 0. 0. 0. 0. 0. 0. 0. 0. 1.92307699e-002 0. 0.
      1.28205130e-002 0. 0. 0. 0. 6.41025649e-003 0. 6.41025649e-003 0.
      6.41025649e-003 0. 0. 6.41025649e-003 0. 0. 0. 1.28205130e-002 0.
      6.41025649e-003 0. 0. 0. 0. 6.41025649e-003 6.41025649e-003 0. 0.
      0. 0. 0. 0. 0. 6.41025649e-003 6.41025649e-003 0. 0.
      6.41025649e-003 0. 6.41025649e-003 0. 0. 6.41025649e-003 0.
      6.41025649e-003 6.41025649e-003 0. 0. 0. 0. 0. 0. 0. 0.
      6.41025649e-003 0. 0. 0. 0. 0. 6.41025649e-003 0. 0. 0. 0. 0.
      6.41025649e-003 0. 6.41025649e-003 0. 0. 0. 6.41025649e-003 0. 0.
      0. 0. 0. 0. 0. 6.41025649e-003 0. 0. 0. 6.41025649e-003 0.
      6.41025649e-003 6.41025649e-003 0. 0. 0. 0. 0. 0. 6.41025649e-003
      6.41025649e-003 0. 0. 6.41025649e-003 0. 6.41025649e-003 0. 0. 0.
      0. 0. 1.28205130e-002 1.92307699e-002 0. 0. 1.28205130e-002
      6.41025649e-003 0. 0. 0. 0. 0. 0. 0. 0. 6.41025649e-003 0. 0.
      1.28205130e-002 0. 0. 0. 0. 0. 0. 0. 0. 1.28205130e-002
      1.28205130e-002 0. 0. 0. 0. 6.41025649e-003 0. 1.28205130e-002 0.
      6.41025649e-003 0. 0. 6.41025649e-003 0. 6.41025649e-003 0. 0.
      6.41025649e-003 0. 0. 0. 0. 0. 0. 1.28205130e-002 0.
      6.41025649e-003 0. 0. 6.41025649e-003 0. 6.41025649e-003 0. 0. 0.
      0. 0. 0. 0. 6.41025649e-003 6.41025649e-003 6.41025649e-003 0.
      1.28205130e-002 0. 1.28205130e-002 6.41025649e-003 0. 0. 0.
      6.41025649e-003 0. 6.41025649e-003 0. 0. 0. 0. 6.41025649e-003
      6.41025649e-003 2.56410260e-002 0. 0. 0. 0. 0. 6.41025649e-003
      6.41025649e-003 0. 0. 0. 0. 0. 6.41025649e-003 0. 6.41025649e-003
      0. 6.41025649e-003 0. 0. 0. 0. 0. 0. 6.41025649e-003 0. 0. 0. 0.
      6.41025649e-003 0. 0. 6.41025649e-003 0. 0. 0. 6.41025649e-003 0.
      0. 0. 0.</_>
    <_>
      0. 0. 0. 1.11111114e-002 1.11111114e-002 0. 1.11111114e-002 0. 0.
      0. 1.11111114e-002 0. 0. 0. 0. 0. 1.11111114e-002 0.
      1.11111114e-002 0. 0. 0. 0. 1.11111114e-002 0. 1.11111114e-002 0.
      0. 0. 1.11111114e-002 0. 1.11111114e-002 0. 1.11111114e-002
      2.22222228e-002 0. 1.11111114e-002 0. 0. 0. 1.11111114e-002 0. 0.
      0. 0. 1.11111114e-002 1.11111114e-002 0. 0. 1.11111114e-002 0. 0.
      0. 1.11111114e-002 0. 0. 0. 0. 0. 0. 0. 0. 0. 0. 0. 0. 0. 0. 0. 0.
      0. 0. 0. 0. 0. 2.22222228e-002 0. 0. 1.11111114e-002
      1.11111114e-002 0. 1.11111114e-002 0. 0. 0. 0. 0. 0. 0. 0.
      1.11111114e-002 0. 0. 1.11111114e-002 0. 0. 1.11111114e-002
      1.11111114e-002 1.11111114e-002 0. 0. 1.11111114e-002 0. 0. 0.
      1.11111114e-002 2.22222228e-002 0. 0. 0. 0. 0. 1.11111114e-002 0.
      0. 1.11111114e-002 0. 0. 0. 0. 0. 1.11111114e-002 0.
      1.11111114e-002 0. 0. 0. 0. 0. 0. 0. 0. 0. 0. 0. 0. 0. 0. 0.
      1.11111114e-002 1.11111114e-002 0. 0. 0. 0. 0. 0. 0. 0. 0. 0. 0.
      0. 0. 0. 0. 0. 0. 1.11111114e-002 0. 0. 0. 0. 0. 2.22222228e-002
      0. 0. 1.11111114e-002 0. 1.11111114e-002 0. 0. 0. 0.
      1.11111114e-002 0. 0. 0. 0. 1.11111114e-002 0. 0. 1.11111114e-002
      0. 0. 0. 2.22222228e-002 0. 0. 1.11111114e-002 0. 0. 0. 0. 0. 0.
      0. 0. 1.11111114e-002 1.11111114e-002 0. 0. 0. 0. 0. 0. 0. 0. 0.
      0. 0. 0. 0. 0. 0. 0. 0. 0. 1.11111114e-002 0. 1.11111114e-002 0.
      0. 0. 0. 0. 0. 1.11111114e-002 0. 0. 0. 1.11111114e-002 0. 0. 0.
      0. 0. 1.11111114e-002 0. 1.11111114e-002 0. 0. 1.11111114e-002 0.
      0. 0. 0. 0. 0. 0. 0. 1.11111114e-002 0. 0. 1.11111114e-002 0. 0.
      0. 1.11111114e-002 0. 0. 1.11111114e-002 1.11111114e-002
      1.11111114e-002 0. 0. 0. 0. 0. 0. 0. 0. 0. 0. 0. 1.11111114e-002
      0. 1.11111114e-002 0. 0. 0. 0. 0. 2.22222228e-002 0. 0.
      1.11111114e-002 0. 0. 1.11111114e-002 0. 0. 1.11111114e-002
      1.11111114e-002 0. 1.11111114e-002 0. 0. 0. 0. 0. 0. 0. 0. 0.
      1.11111114e-002 0. 0. 0. 0. 0. 0. 0. 0. 1.11111114e-002
      1.11111114e-002 0. 0. 0. 0. 0. 1.11111114e-002 0. 0. 0. 0. 0. 0.
      0. 0. 0. 0. 0. 0. 0. 0. 0. 0. 0. 0. 0. 0. 1.11111114e-002 0. 0. 0.
      0. 0. 0. 0. 0. 0. 1.11111114e-002 0. 1.11111114e-002 0. 0. 0.
      1.11111114e-002 1.11111114e-002 0. 2.22222228e-002 1.11111114e-002
      0. 0. 0. 1.11111114e-002 0. 0. 0. 0. 0. 0. 0. 2.22222228e-002 0.
      0. 0. 0. 1.11111114e-002 0. 0. 0. 0. 0. 0. 0. 0. 0. 0. 0. 0. 0. 0.
      0. 0. 0. 0. 0. 0.</_>
    <_>
      0. 0. 0. 0. 0. 0. 9.09090880e-003 0. 0. 0. 0. 0. 0.
      9.09090880e-003 9.09090880e-003 1.81818176e-002 0. 9.09090880e-003
      0. 0. 1.81818176e-002 0. 0. 9.09090880e-003 9.09090880e-003
      9.09090880e-003 0. 0. 0. 0. 0. 9.09090880e-003 0. 9.09090880e-003
      0. 0. 9.09090880e-003 0. 0. 9.09090880e-003 2.72727273e-002 0. 0.
      0. 0. 9.09090880e-003 0. 0. 0. 0. 0. 0. 0. 2.72727273e-002 0. 0.
      0. 0. 9.09090880e-003 0. 0. 9.09090880e-003 9.09090880e-003
      9.09090880e-003 9.09090880e-003 0. 0. 0. 0. 0. 0. 0. 0.
      9.09090880e-003 0. 0. 0. 0. 0. 9.09090880e-003 9.09090880e-003 0.
      0. 0. 9.09090880e-003 0. 0. 0. 0. 0. 9.09090880e-003 0.
      9.09090880e-003 0. 0. 0. 0. 0. 9.09090880e-003 0. 0.
      9.09090880e-003 0. 9.09090880e-003 0. 0. 0. 9.09090880e-003 0. 0.
      0. 0. 0. 0. 0. 0. 0. 0. 9.09090880e-003 0. 0. 9.09090880e-003 0.
      0. 0. 0. 0. 0. 9.09090880e-003 0. 9.09090880e-003 0.
      9.09090880e-003 0. 0. 0. 0. 0. 0. 9.09090880e-003 0. 0. 0. 0. 0.
      0. 0. 9.09090880e-003 0. 0. 0. 0. 0. 9.09090880e-003 0.
      9.09090880e-003 9.09090880e-003 0. 0. 9.09090880e-003 0. 0. 0. 0.
      0. 0. 0. 9.09090880e-003 0. 0. 0. 0. 0. 0. 0. 0. 0. 0. 0.
      9.09090880e-003 0. 0. 0. 0. 9.09090880e-003 1.81818176e-002
      9.09090880e-003 0. 0. 1.81818176e-002 1.81818176e-002 0.
      9.09090880e-003 0. 9.09090880e-003 0. 0. 0. 0. 0. 0. 0. 0. 0. 0.
      0. 0. 9.09090880e-003 0. 0. 0. 0. 0. 0. 0. 0. 0. 0. 0. 0. 0. 0. 0.
      0. 0. 9.09090880e-003 0. 0. 0. 0. 0. 0. 0. 0. 0. 0. 0.
      1.81818176e-002 0. 9.09090880e-003 0. 0. 2.72727273e-002
      9.09090880e-003 0. 0. 0. 0. 9.09090880e-003 0. 9.09090880e-003
      9.09090880e-003 9.09090880e-003 9.09090880e-003 0. 0. 0. 0.
      9.09090880e-003 0. 0. 0. 9.09090880e-003 0. 0. 0. 0. 0. 0. 0. 0.
      0. 0. 0. 9.09090880e-003 9.09090880e-003 9.09090880e-003
      1.81818176e-002 0. 0. 0. 0. 9.09090880e-003 0. 9.09090880e-003 0.
      0. 9.09090880e-003 0. 0. 0. 0. 0. 0. 9.09090880e-003
      9.09090880e-003 0. 0. 0. 0. 0. 0. 0. 0. 9.09090880e-003
      9.09090880e-003 0. 0. 0. 0. 0. 0. 9.09090880e-003 0.
      9.09090880e-003 9.09090880e-003 0. 0. 0. 0. 0. 0. 0. 0. 0. 0. 0.
      9.09090880e-003 0. 0. 0. 0. 0. 0. 0. 1.81818176e-002 0.
      9.09090880e-003 2.72727273e-002 9.09090880e-003 0. 0. 0. 0. 0. 0.
      0. 0. 0. 0. 9.09090880e-003 0. 0. 0. 9.09090880e-003
      9.09090880e-003 0. 0. 1.81818176e-002 0. 0. 0. 0. 0. 0. 0. 0. 0.
      0. 0. 9.09090880e-003 0. 9.09090880e-003 0. 0. 0. 0. 0. 0.
      9.09090880e-003 0. 0. 0. 0. 0. 0. 0. 0. 9.09090880e-003 0. 0. 0.
      9.09090880e-003 0. 9.09090880e-003 0. 0. 0. 0. 0.</_>
    <_>
      0. 0. 1.05263162e-002 1.05263162e-002 0. 0. 1.05263162e-002 0.
      1.05263162e-002 0. 0. 1.05263162e-002 0. 0. 1.05263162e-002 0. 0.
      0. 0. 0. 0. 0. 1.05263162e-002 0. 0. 1.05263162e-002
      1.05263162e-002 0. 0. 0. 2.10526325e-002 0. 0. 0. 0. 0.
      1.05263162e-002 0. 0. 0. 0. 0. 0. 0. 0. 0. 0. 0. 1.05263162e-002
      0. 1.05263162e-002 0. 1.05263162e-002 0. 0. 0. 0. 0. 0. 0. 0.
      1.05263162e-002 0. 1.05263162e-002 0. 0. 0. 0. 0. 2.10526325e-002
      0. 0. 0. 0. 0. 1.05263162e-002 0. 0. 0. 0. 0. 0. 1.05263162e-002
      0. 1.05263162e-002 0. 0. 0. 0. 1.05263162e-002 0. 0. 0. 0. 0. 0.
      2.10526325e-002 0. 0. 0. 0. 0. 0. 0. 1.05263162e-002 0.
      2.10526325e-002 0. 0. 2.10526325e-002 0. 0. 0. 0. 0. 0. 0. 0. 0.
      0. 0. 0. 0. 0. 1.05263162e-002 0. 0. 0. 0. 1.05263162e-002 0. 0.
      0. 0. 0. 0. 0. 0. 0. 0. 0. 0. 0. 0. 1.05263162e-002 0. 0. 0. 0. 0.
      0. 0. 0. 0. 0. 0. 0. 0. 2.10526325e-002 0. 1.05263162e-002
      3.15789506e-002 0. 0. 0. 0. 0. 1.05263162e-002 0. 0. 0. 0.
      2.10526325e-002 0. 1.05263162e-002 0. 0. 0. 0. 0. 0. 0.
      1.05263162e-002 0. 0. 0. 0. 0. 1.05263162e-002 2.10526325e-002 0.
      0. 0. 0. 0. 0. 0. 1.05263162e-002 0. 0. 0. 1.05263162e-002 0.
      1.05263162e-002 0. 0. 0. 0. 0. 0. 0. 0. 0. 1.05263162e-002 0. 0.
      2.10526325e-002 0. 0. 0. 0. 0. 0. 0. 0. 1.05263162e-002 0. 0. 0.
      0. 0. 0. 0. 0. 1.05263162e-002 2.10526325e-002 1.05263162e-002 0.
      0. 0. 1.05263162e-002 1.05263162e-002 0. 1.05263162e-002 0. 0. 0.
      0. 0. 1.05263162e-002 0. 0. 0. 0. 1.05263162e-002 0. 0. 0. 0.
      1.05263162e-002 0. 0. 0. 0. 0. 1.05263162e-002 0. 0. 0. 0. 0. 0.
      0. 0. 0. 0. 0. 0. 0. 0. 0. 2.10526325e-002 0. 0. 0. 0. 0. 0. 0. 0.
      0. 0. 0. 0. 0. 0. 0. 0. 0. 1.05263162e-002 0. 0. 2.10526325e-002
      1.05263162e-002 0. 0. 0. 0. 0. 0. 0. 0. 0. 0. 0. 0. 0. 0. 0.
      1.05263162e-002 1.05263162e-002 0. 0. 1.05263162e-002 0. 0. 0. 0.
      0. 0. 0. 0. 1.05263162e-002 2.10526325e-002 0. 0. 0.
      1.05263162e-002 1.05263162e-002 0. 1.05263162e-002 1.05263162e-002
      0. 0. 1.05263162e-002 0. 0. 1.05263162e-002 0. 1.05263162e-002 0.
      0. 3.15789506e-002 1.05263162e-002 0. 0. 0. 1.05263162e-002 0. 0.
      0. 0. 0. 1.05263162e-002 0. 0. 0. 0. 0. 0. 0. 1.05263162e-002 0.
      0. 0. 0. 0. 0. 1.05263162e-002 0. 0. 0. 1.05263162e-002 0. 0. 0.
      0. 0. 1.05263162e-002 0. 0. 0. 0. 0. 0. 0. 1.05263162e-002 0. 0.
      0.</_>
    <_>
      0. 0. 0. 0. 0. 0. 8.40336177e-003 0. 0. 0. 0. 0. 0. 0. 0. 0. 0.
      8.40336177e-003 8.40336177e-003 0. 0. 0. 0. 0. 0. 0. 0. 0. 0. 0.
      2.52100863e-002 8.40336177e-003 8.40336177e-003 0. 0.
      1.68067235e-002 8.40336177e-003 0. 8.40336177e-003 0.
      8.40336177e-003 8.40336177e-003 0. 0. 8.40336177e-003
      8.40336177e-003 1.68067235e-002 8.40336177e-003 0. 1.68067235e-002
      0. 0. 0. 8.40336177e-003 0. 0. 0. 0. 0. 0. 8.40336177e-003 0. 0.
      0. 8.40336177e-003 0. 0. 0. 0. 0. 0. 0. 0. 0. 0. 8.40336177e-003
      0. 8.40336177e-003 0. 8.40336177e-003 8.40336177e-003 0. 0.
      8.40336177e-003 0. 0. 0. 0. 1.68067235e-002 0. 8.40336177e-003 0.
      0. 8.40336177e-003 0. 0. 0. 0. 0. 1.68067235e-002 0. 0.
      8.40336177e-003 0. 0. 0. 0. 8.40336177e-003 8.40336177e-003 0. 0.
      0. 0. 0. 0. 8.40336177e-003 0. 0. 0. 0. 8.40336177e-003 0.
      8.40336177e-003 0. 0. 8.40336177e-003 8.40336177e-003 0. 0.
      8.40336177e-003 8.40336177e-003 0. 8.40336177e-003 0. 0. 0.
      8.40336177e-003 0. 0. 0. 0. 0. 0. 0. 8.40336177e-003 0. 0.
      8.40336177e-003 8.40336177e-003 0. 0. 1.68067235e-002 0.
      8.40336177e-003 0. 0. 0. 0. 8.40336177e-003 0. 0. 0. 0. 0. 0.
      8.40336177e-003 8.40336177e-003 0. 0. 0. 0. 0. 0. 0.
      8.40336177e-003 8.40336177e-003 0. 0. 0. 8.40336177e-003 0. 0. 0.
      0. 0. 0. 0. 0. 0. 8.40336177e-003 0. 0. 0. 0. 0. 0. 0. 0.
      8.40336177e-003 0. 0. 0. 0. 8.40336177e-003 0. 0. 0. 0. 0. 0. 0.
      0. 0. 8.40336177e-003 0. 0. 1.68067235e-002 8.40336177e-003 0. 0.
      0. 0. 8.40336177e-003 0. 0. 0. 0. 0. 0. 8.40336177e-003 0. 0. 0.
      0. 0. 0. 0. 0. 0. 8.40336177e-003 0. 8.40336177e-003 0. 0. 0.
      1.68067235e-002 8.40336177e-003 0. 1.68067235e-002 0. 0.
      8.40336177e-003 0. 8.40336177e-003 0. 0. 8.40336177e-003 0.
      8.40336177e-003 0. 0. 0. 0. 0. 0. 0. 0. 0. 0. 0. 0. 0. 0. 0.
      8.40336177e-003 0. 0. 0. 0. 0. 0. 0. 8.40336177e-003 0. 0.
      8.40336177e-003 0. 8.40336177e-003 0. 8.40336177e-003 0. 0. 0.
      8.40336177e-003 0. 8.40336177e-003 8.40336177e-003 0. 0.
      8.40336177e-003 0. 8.40336177e-003 0. 8.40336177e-003 0. 0. 0. 0.
      0. 0. 0. 0. 0. 0. 0. 8.40336177e-003 0. 0. 0. 0. 0. 0. 0. 0.
      8.40336177e-003 0. 0. 0. 0. 8.40336177e-003 0. 0. 0. 0. 0. 0. 0.
      8.40336177e-003 8.40336177e-003 0. 0. 0. 0. 0. 0. 0. 0.
      1.68067235e-002 0. 0. 0. 8.40336177e-003 0. 8.40336177e-003
      8.40336177e-003 8.40336177e-003 0. 0. 2.52100863e-002
      1.68067235e-002 0. 8.40336177e-003 0. 0. 8.40336177e-003 0.
      8.40336177e-003 0. 8.40336177e-003 0. 8.40336177e-003 0. 0.
      8.40336177e-003 0. 0. 0. 0. 0. 1.68067235e-002 0. 0. 0. 0. 0. 0.
      0. 8.40336177e-003 0. 0. 8.40336177e-003 8.40336177e-003 0. 0. 0.
      0. 8.40336177e-003 0. 8.40336177e-003 0.</_>
    <_>
      0. 0. 0. 0. 0. 0. 8.47457629e-003 0. 0. 8.47457629e-003
      8.47457629e-003 0. 0. 8.47457629e-003 0. 0. 0. 0. 8.47457629e-003
      0. 0. 0. 0. 0. 8.47457629e-003 0. 0. 8.47457629e-003
      8.47457629e-003 0. 4.23728824e-002 0. 8.47457629e-003 0.
      8.47457629e-003 0. 8.47457629e-003 1.69491526e-002 0. 0.
      8.47457629e-003 0. 0. 0. 8.47457629e-003 0. 8.47457629e-003
      8.47457629e-003 0. 0. 0. 0. 0. 8.47457629e-003 0. 0. 0.
      8.47457629e-003 0. 0. 0. 0. 8.47457629e-003 8.47457629e-003 0. 0.
      0. 0. 0. 8.47457629e-003 0. 0. 0. 0. 0. 1.69491526e-002 0. 0.
      8.47457629e-003 0. 0. 0. 0. 8.47457629e-003 0. 0. 0. 0. 0. 0.
      8.47457629e-003 0. 0. 0. 0. 8.47457629e-003 0. 0. 0.
      2.54237279e-002 0. 8.47457629e-003 0. 8.47457629e-003 0. 0. 0.
      8.47457629e-003 0. 8.47457629e-003 0. 0. 0. 0. 8.47457629e-003 0.
      0. 0. 0. 0. 0. 0. 0. 0. 0. 0. 0. 1.69491526e-002 8.47457629e-003
      1.69491526e-002 0. 0. 0. 0. 0. 0. 0. 0. 0. 0. 0. 0. 0. 0. 0. 0. 0.
      0. 8.47457629e-003 0. 0. 0. 0. 8.47457629e-003 0. 0. 0. 0. 0.
      1.69491526e-002 0. 0. 0. 8.47457629e-003 0. 2.54237279e-002 0. 0.
      0. 0. 0. 0. 0. 0. 0. 0. 8.47457629e-003 0. 0. 0. 0.
      1.69491526e-002 0. 8.47457629e-003 0. 8.47457629e-003 0. 0. 0. 0.
      0. 0. 0. 0. 0. 8.47457629e-003 0. 0. 0. 0. 0. 0. 0. 0. 0.
      8.47457629e-003 0. 8.47457629e-003 0. 8.47457629e-003 0. 0.
      8.47457629e-003 0. 0. 0. 8.47457629e-003 8.47457629e-003
      8.47457629e-003 0. 8.47457629e-003 0. 0. 0. 0. 8.47457629e-003 0.
      0. 8.47457629e-003 0. 0. 1.69491526e-002 0. 0. 0. 8.47457629e-003
      0. 0. 0. 8.47457629e-003 8.47457629e-003 1.69491526e-002
      8.47457629e-003 8.47457629e-003 0. 0. 0. 0. 0. 0. 0.
      1.69491526e-002 0. 0. 0. 0. 0. 0. 8.47457629e-003 0. 0. 0.
      8.47457629e-003 0. 0. 0. 0. 0. 8.47457629e-003 0. 0. 0. 0. 0. 0.
      0. 0. 8.47457629e-003 0. 0. 0. 0. 8.47457629e-003 8.47457629e-003
      0. 8.47457629e-003 0. 0. 0. 8.47457629e-003 8.47457629e-003
      8.47457629e-003 0. 0. 0. 8.47457629e-003 8.47457629e-003
      8.47457629e-003 0. 8.47457629e-003 0. 0. 8.47457629e-003
      8.47457629e-003 0. 0. 0. 0. 0. 0. 0. 0. 0. 0. 0. 0.
      8.47457629e-003 0. 0. 0. 8.47457629e-003 0. 8.47457629e-003 0. 0.
      0. 0. 8.47457629e-003 0. 0. 0. 0. 0. 0. 0. 0. 0. 1.69491526e-002
      0. 0. 0. 0. 0. 8.47457629e-003 0. 0. 8.47457629e-003
      8.47457629e-003 0. 0. 0. 0. 8.47457629e-003 0. 0. 0. 0. 0. 0.
      2.54237279e-002 0. 8.47457629e-003 0. 0. 0. 8.47457629e-003 0. 0.
      0. 8.47457629e-003 0. 0. 0. 0. 0. 0. 8.47457629e-003 0. 0.
      8.47457629e-003 8.47457629e-003 0. 0. 0. 8.47457629e-003 0. 0. 0.
      0. 0. 0. 0. 8.47457629e-003 0. 0. 0. 0. 0. 0. 0.</_>
    <_>
      0. 0. 0. 0. 0. 0. 0. 0. 0. 0. 0. 0. 1.53846154e-002 0. 0. 0.
      1.53846154e-002 0. 0. 0. 0. 0. 0. 0. 0. 1.53846154e-002
      1.53846154e-002 0. 0. 0. 0. 0. 0. 1.53846154e-002 1.53846154e-002
      0. 1.53846154e-002 0. 0. 0. 0. 0. 0. 0. 1.53846154e-002 0.
      3.07692308e-002 0. 1.53846154e-002 0. 0. 0. 0. 0. 0. 0. 0. 0.
      1.53846154e-002 0. 1.53846154e-002 0. 1.53846154e-002
      1.53846154e-002 0. 0. 0. 0. 0. 1.53846154e-002 0. 0. 0. 0. 0.
      1.53846154e-002 0. 0. 0. 0. 0. 0. 0. 0. 0. 0. 0. 0. 0. 0. 0.
      1.53846154e-002 1.53846154e-002 0. 1.53846154e-002 0. 0.
      1.53846154e-002 0. 1.53846154e-002 0. 0. 0. 0. 1.53846154e-002 0.
      1.53846154e-002 0. 0. 0. 1.53846154e-002 1.53846154e-002
      1.53846154e-002 0. 0. 0. 0. 0. 6.15384616e-002 0. 0. 0. 0. 0. 0.
      1.53846154e-002 0. 0. 1.53846154e-002 0. 0. 0. 0. 0. 0. 0.
      1.53846154e-002 0. 0. 0. 0. 1.53846154e-002 0. 0. 0. 0.
      1.53846154e-002 0. 0. 0. 0. 0. 0. 0. 0. 0. 0. 1.53846154e-002
      1.53846154e-002 0. 0. 0. 0. 3.07692308e-002 0. 0. 0. 0. 0.
      1.53846154e-002 0. 0. 0. 0. 0. 0. 0. 0. 0. 0. 1.53846154e-002 0.
      0. 0. 0. 0. 0. 0. 0. 1.53846154e-002 0. 0. 0. 0. 0. 0. 0. 0. 0. 0.
      0. 0. 0. 0. 0. 0. 1.53846154e-002 0. 1.53846154e-002 0. 0. 0.
      1.53846154e-002 0. 0. 0. 0. 0. 0. 0. 1.53846154e-002 0. 0. 0. 0.
      0. 1.53846154e-002 1.53846154e-002 0. 0. 0. 0. 0. 0. 0. 0. 0. 0.
      0. 0. 0. 1.53846154e-002 1.53846154e-002 0. 0. 0. 0. 0. 0. 0. 0.
      0. 0. 0. 0. 0. 0. 1.53846154e-002 0. 0. 0. 0. 1.53846154e-002 0.
      0. 0. 0. 0. 0. 0. 0. 0. 1.53846154e-002 0. 0. 0. 0. 0. 0. 0. 0. 0.
      0. 0. 0. 0. 0. 0. 0. 0. 0. 1.53846154e-002 0. 0. 0. 0. 0. 0. 0. 0.
      1.53846154e-002 0. 0. 0. 0. 1.53846154e-002 0. 0. 0. 0. 0. 0. 0.
      0. 0. 0. 0. 0. 0. 0. 0. 0. 0. 0. 0. 0. 0. 0. 0. 0. 0. 0. 0. 0. 0.
      0. 0. 0. 1.53846154e-002 0. 0. 0. 0. 0. 0. 1.53846154e-002 0. 0.
      0. 0. 0. 0. 0. 0. 0. 0. 0. 1.53846154e-002 0. 0. 0. 0. 0. 0. 0. 0.
      0. 1.53846154e-002 0. 1.53846154e-002 0. 0. 0. 0. 1.53846154e-002
      0. 0. 0. 0. 1.53846154e-002 0. 0. 0. 0. 0. 0. 0. 0.
      1.53846154e-002 0. 0. 0. 0. 0. 0. 0. 0. 0. 0. 0.</_>
    <_>
      0. 0. 7.09219836e-003 0. 7.09219836e-003 0. 0. 0. 7.09219836e-003
      0. 0. 0. 7.09219836e-003 7.09219836e-003 0. 0. 0. 7.09219836e-003
      7.09219836e-003 0. 0. 0. 0. 0. 7.09219836e-003 0. 0. 0. 0. 0.
      4.25531901e-002 0. 7.09219836e-003 0. 0. 7.09219836e-003 0. 0.
      7.09219836e-003 0. 0. 7.09219836e-003 0. 0. 7.09219836e-003 0.
      7.09219836e-003 7.09219836e-003 7.09219836e-003 7.09219836e-003 0.
      0. 0. 0. 0. 0. 0. 1.41843967e-002 0. 0. 0. 0. 0. 0. 0. 0. 0. 0. 0.
      1.41843967e-002 0. 0. 1.41843967e-002 0. 7.09219836e-003 0.
      7.09219836e-003 0. 0. 0. 0. 0. 1.41843967e-002 7.09219836e-003 0.
      2.12765951e-002 0. 7.09219836e-003 0. 0. 7.09219836e-003 0. 0. 0.
      0. 0. 0. 0. 0. 7.09219836e-003 0. 0. 0. 7.09219836e-003
      7.09219836e-003 0. 0. 7.09219836e-003 0. 1.41843967e-002 0. 0.
      7.09219836e-003 0. 0. 0. 0. 0. 7.09219836e-003 7.09219836e-003
      7.09219836e-003 0. 0. 0. 0. 0. 0. 0. 0. 1.41843967e-002
      7.09219836e-003 0. 0. 0. 0. 0. 7.09219836e-003 0. 0.
      7.09219836e-003 7.09219836e-003 0. 0. 0. 0. 0. 0. 7.09219836e-003
      7.09219836e-003 0. 0. 0. 0. 7.09219836e-003 7.09219836e-003 0. 0.
      0. 0. 0. 0. 0. 0. 0. 0. 1.41843967e-002 7.09219836e-003
      7.09219836e-003 7.09219836e-003 0. 0. 0. 0. 7.09219836e-003
      7.09219836e-003 7.09219836e-003 0. 7.09219836e-003 0. 0. 0. 0. 0.
      0. 7.09219836e-003 0. 0. 0. 7.09219836e-003 0. 0. 1.41843967e-002
      0. 7.09219836e-003 0. 7.09219836e-003 0. 0. 7.09219836e-003
      7.09219836e-003 0. 0. 7.09219836e-003 0. 7.09219836e-003
      7.09219836e-003 0. 7.09219836e-003 0. 0. 0. 7.09219836e-003 0. 0.
      0. 0. 7.09219836e-003 7.09219836e-003 0. 0. 0. 7.09219836e-003 0.
      1.41843967e-002 0. 0. 0. 1.41843967e-002 7.09219836e-003 0. 0.
      1.41843967e-002 0. 0. 0. 2.12765951e-002 0. 0. 0. 0. 0. 0.
      7.09219836e-003 0. 7.09219836e-003 0. 7.09219836e-003 0. 0. 0.
      7.09219836e-003 7.09219836e-003 0. 7.09219836e-003 0.
      7.09219836e-003 0. 0. 0. 1.41843967e-002 0. 0. 0. 0. 0. 0. 0.
      7.09219836e-003 7.09219836e-003 7.09219836e-003 0. 0.
      7.09219836e-003 0. 7.09219836e-003 7.09219836e-003 0. 0. 0. 0.
      7.09219836e-003 7.09219836e-003 0. 0. 0. 0. 0. 0. 0. 0. 0. 0. 0.
      0. 0. 7.09219836e-003 0. 0. 7.09219836e-003 1.41843967e-002 0.
      7.09219836e-003 0. 0. 0. 0. 0. 0. 0. 7.09219836e-003 0.
      7.09219836e-003 0. 0. 1.41843967e-002 7.09219836e-003
      7.09219836e-003 0. 0. 0. 0. 7.09219836e-003 0. 0. 0. 0. 0. 0. 0.
      0. 0. 0. 0. 7.09219836e-003 7.09219836e-003 7.09219836e-003 0.
      7.09219836e-003 7.09219836e-003 0. 0. 1.41843967e-002
      7.09219836e-003 0. 7.09219836e-003 7.09219836e-003 0. 0. 0.
      7.09219836e-003 0. 0. 0. 0. 0. 0. 0. 0. 0. 7.09219836e-003 0. 0.
      0. 0. 0. 7.09219836e-003 7.09219836e-003 0. 0. 0. 0. 0. 0. 0. 0.
      0. 7.09219836e-003 0. 0. 7.09219836e-003 0. 0. 0. 0. 0. 0. 0. 0.
      0. 0. 7.09219836e-003 0. 0. 0. 0. 0. 0. 7.09219836e-003 0. 0.</_>
    <_>
      6.71140943e-003 0. 0. 1.34228189e-002 0. 0. 6.71140943e-003 0. 0.
      0. 0. 0. 0. 0. 6.71140943e-003 0. 0. 0. 0. 0. 0. 0. 0. 0.
      1.34228189e-002 6.71140943e-003 0. 6.71140943e-003 6.71140943e-003
      0. 2.01342292e-002 0. 6.71140943e-003 0. 1.34228189e-002
      6.71140943e-003 1.34228189e-002 6.71140943e-003 0. 0. 0. 0.
      6.71140943e-003 0. 0. 0. 6.71140943e-003 2.01342292e-002 0.
      6.71140943e-003 0. 0. 1.34228189e-002 6.71140943e-003 0. 0.
      6.71140943e-003 0. 0. 0. 6.71140943e-003 1.34228189e-002
      6.71140943e-003 0. 0. 6.71140943e-003 0. 0. 0. 0. 0. 0. 0.
      6.71140943e-003 0. 2.01342292e-002 0. 0. 0. 0. 0. 0. 0. 0.
      1.34228189e-002 0. 0. 0. 0. 0. 0. 0. 0. 0. 0. 6.71140943e-003 0.
      6.71140943e-003 0. 1.34228189e-002 0. 0. 6.71140943e-003
      1.34228189e-002 0. 0. 0. 0. 6.71140943e-003 6.71140943e-003 0.
      6.71140943e-003 0. 6.71140943e-003 1.34228189e-002 6.71140943e-003
      0. 0. 0. 0. 0. 0. 0. 0. 0. 0. 0. 0. 0. 0. 6.71140943e-003 0. 0. 0.
      0. 6.71140943e-003 6.71140943e-003 0. 1.34228189e-002 0. 0. 0.
      6.71140943e-003 0. 0. 0. 0. 0. 6.71140943e-003 0. 6.71140943e-003
      6.71140943e-003 6.71140943e-003 6.71140943e-003 6.71140943e-003 0.
      0. 6.71140943e-003 0. 0. 0. 0. 0. 0. 0. 6.71140943e-003
      6.71140943e-003 0. 1.34228189e-002 0. 6.71140943e-003 0. 0. 0. 0.
      0. 0. 0. 0. 0. 0. 0. 0. 0. 6.71140943e-003 1.34228189e-002 0. 0.
      0. 0. 0. 0. 1.34228189e-002 6.71140943e-003 0. 0. 0. 0.
      6.71140943e-003 0. 0. 0. 0. 6.71140943e-003 1.34228189e-002 0. 0.
      6.71140943e-003 0. 6.71140943e-003 0. 0. 0. 0. 0. 0.
      1.34228189e-002 0. 0. 0. 6.71140943e-003 0. 0. 6.71140943e-003 0.
      6.71140943e-003 6.71140943e-003 6.71140943e-003 1.34228189e-002 0.
      0. 0. 0. 0. 0. 2.01342292e-002 0. 6.71140943e-003 0.
      6.71140943e-003 6.71140943e-003 0. 0. 0. 0. 0. 0. 0. 0. 0. 0.
      6.71140943e-003 0. 1.34228189e-002 0. 0. 0. 0. 0. 6.71140943e-003
      0. 6.71140943e-003 6.71140943e-003 0. 0. 0. 0. 6.71140943e-003
      6.71140943e-003 0. 0. 0. 6.71140943e-003 6.71140943e-003
      6.71140943e-003 0. 0. 0. 0. 0. 6.71140943e-003 0. 0. 0. 0. 0. 0.
      0. 0. 6.71140943e-003 6.71140943e-003 0. 0. 0. 0. 0. 0.
      6.71140943e-003 0. 0. 6.71140943e-003 0. 6.71140943e-003 0. 0. 0.
      0. 0. 0. 6.71140943e-003 0. 0. 0. 1.34228189e-002 6.71140943e-003
      0. 0. 6.71140943e-003 0. 6.71140943e-003 0. 0. 1.34228189e-002 0.
      6.71140943e-003 6.71140943e-003 6.71140943e-003 0. 0. 0. 0. 0. 0.
      0. 0. 6.71140943e-003 0. 6.71140943e-003 0. 0. 6.71140943e-003
      6.71140943e-003 0. 0. 0. 6.71140943e-003 6.71140943e-003 0. 0. 0.
      6.71140943e-003 0. 0. 0. 0. 6.71140943e-003 0. 0. 6.71140943e-003
      1.34228189e-002 0. 0. 0. 0. 0. 0. 0. 0. 6.71140943e-003 0. 0. 0.
      0. 6.71140943e-003 0. 0. 0. 1.34228189e-002 6.71140943e-003
      6.71140943e-003 6.71140943e-003 0. 0. 0. 0. 0. 0. 6.71140943e-003
      0. 0. 6.71140943e-003 0. 6.71140943e-003 0. 0. 0. 0. 0. 0. 0.</_>
    <_>
      0. 0. 0. 4.54545468e-002 0. 2.27272734e-002 0. 0. 0. 0. 0. 0. 0.
      0. 0. 0. 0. 0. 1.13636367e-002 0. 0. 0. 0. 1.13636367e-002 0. 0.
      0. 0. 0. 0. 0. 0. 0. 2.27272734e-002 0. 0. 0. 0. 0. 0. 0. 0. 0. 0.
      0. 0. 0. 2.27272734e-002 0. 0. 1.13636367e-002 0. 0.
      2.27272734e-002 0. 0. 0. 0. 0. 1.13636367e-002 0. 0. 0. 0. 0.
      1.13636367e-002 1.13636367e-002 0. 0. 0. 0. 0. 0. 2.27272734e-002
      0. 1.13636367e-002 0. 0. 0. 0. 1.13636367e-002 1.13636367e-002
      1.13636367e-002 0. 0. 0. 0. 0. 0. 0. 0. 0. 1.13636367e-002 0.
      1.13636367e-002 0. 0. 0. 1.13636367e-002 0. 0. 0. 0. 0. 0. 0.
      2.27272734e-002 0. 0. 0. 0. 0. 0. 0. 0. 0. 1.13636367e-002 0. 0.
      2.27272734e-002 1.13636367e-002 0. 0. 2.27272734e-002 0. 0. 0. 0.
      0. 0. 0. 0. 0. 1.13636367e-002 0. 0. 0. 0. 0. 0. 0. 0. 0. 0. 0. 0.
      0. 0. 0. 0. 0. 0. 3.40909101e-002 0. 1.13636367e-002 0.
      2.27272734e-002 1.13636367e-002 0. 1.13636367e-002 0. 0. 0. 0. 0.
      0. 0. 0. 1.13636367e-002 0. 0. 0. 0. 0. 0. 0. 0. 0. 0. 0. 0.
      1.13636367e-002 0. 0. 1.13636367e-002 0. 1.13636367e-002 0. 0. 0.
      0. 1.13636367e-002 1.13636367e-002 0. 0. 0. 1.13636367e-002 0. 0.
      0. 0. 0. 0. 0. 0. 0. 0. 0. 0. 0. 2.27272734e-002 0. 0. 0. 0.
      1.13636367e-002 1.13636367e-002 0. 0. 0. 0. 0. 0. 0. 0. 0. 0. 0.
      0. 0. 0. 0. 0. 0. 0. 0. 0. 0. 0. 0. 0. 0. 0. 0. 0. 1.13636367e-002
      0. 0. 0. 0. 0. 1.13636367e-002 2.27272734e-002 0. 0. 0. 0. 0. 0.
      0. 0. 0. 0. 1.13636367e-002 0. 0. 0. 0. 1.13636367e-002 0. 0. 0.
      0. 1.13636367e-002 2.27272734e-002 0. 0. 0. 1.13636367e-002 0. 0.
      0. 0. 0. 0. 1.13636367e-002 0. 0. 0. 0. 0. 0. 0. 0. 0. 0. 0. 0. 0.
      1.13636367e-002 0. 0. 0. 0. 0. 1.13636367e-002 1.13636367e-002 0.
      0. 0. 0. 0. 0. 0. 0. 0. 0. 0. 1.13636367e-002 0. 0. 0.
      1.13636367e-002 1.13636367e-002 0. 0. 1.13636367e-002
      1.13636367e-002 0. 0. 0. 0. 0. 0. 0. 0. 0. 0. 0. 0.
      1.13636367e-002 0. 0. 0. 0. 0. 0. 0. 0. 0. 1.13636367e-002 0. 0.
      0. 0. 0. 0. 1.13636367e-002 1.13636367e-002 1.13636367e-002 0. 0.
      1.13636367e-002 0. 0. 0. 1.13636367e-002 0. 0. 1.13636367e-002 0.
      0. 0. 0. 0. 2.27272734e-002 0. 0. 0. 0. 2.27272734e-002 0. 0.
      1.13636367e-002 0. 0. 0. 0. 0. 0. 0. 0. 0. 0. 0. 1.13636367e-002
      0. 0. 0. 0.</_>
    <_>
      0. 0. 1.45985400e-002 7.29927002e-003 0. 0. 7.29927002e-003 0. 0.
      0. 7.29927002e-003 0. 0. 0. 0. 0. 1.45985400e-002 7.29927002e-003
      7.29927002e-003 0. 0. 0. 0. 7.29927002e-003 0. 7.29927002e-003 0.
      0. 0. 0. 7.29927002e-003 1.45985400e-002 0. 7.29927002e-003
      7.29927002e-003 0. 7.29927002e-003 7.29927002e-003 0. 0.
      7.29927002e-003 7.29927002e-003 7.29927002e-003 0. 7.29927002e-003
      0. 1.45985400e-002 7.29927002e-003 0. 0. 0. 7.29927002e-003 0.
      1.45985400e-002 0. 0. 0. 7.29927002e-003 0. 0. 7.29927002e-003 0.
      0. 0. 0. 0. 0. 0. 0. 7.29927002e-003 0. 7.29927002e-003
      7.29927002e-003 0. 0. 7.29927002e-003 0. 0. 0. 7.29927002e-003
      7.29927002e-003 0. 7.29927002e-003 0. 0. 0. 0. 0. 0. 0.
      7.29927002e-003 0. 0. 7.29927002e-003 7.29927002e-003 0.
      1.45985400e-002 0. 7.29927002e-003 7.29927002e-003 0.
      7.29927002e-003 0. 0. 0. 0. 0. 1.45985400e-002 0. 1.45985400e-002
      0. 7.29927002e-003 7.29927002e-003 0. 7.29927002e-003 0. 0. 0. 0.
      0. 0. 7.29927002e-003 7.29927002e-003 0. 0. 0. 0. 0. 0.
      7.29927002e-003 0. 0. 7.29927002e-003 0. 0. 0. 0. 0. 0. 0.
      7.29927002e-003 7.29927002e-003 0. 7.29927002e-003 0. 0. 0.
      1.45985400e-002 0. 0. 0. 7.29927002e-003 0. 7.29927002e-003 0. 0.
      0. 2.18978096e-002 0. 0. 0. 0. 0. 0. 0. 0. 0. 7.29927002e-003 0.
      0. 0. 0. 0. 0. 0. 7.29927002e-003 0. 0. 0. 0. 0. 0. 0. 0. 0. 0. 0.
      0. 7.29927002e-003 7.29927002e-003 0. 7.29927002e-003
      7.29927002e-003 0. 0. 7.29927002e-003 0. 0. 0. 7.29927002e-003
      7.29927002e-003 0. 0. 7.29927002e-003 0. 7.29927002e-003
      7.29927002e-003 0. 0. 7.29927002e-003 0. 0. 0. 0. 0. 0. 0. 0. 0.
      0. 7.29927002e-003 0. 0. 0. 0. 0. 0. 7.29927002e-003
      7.29927002e-003 0. 0. 0. 0. 0. 7.29927002e-003 0. 0.
      7.29927002e-003 0. 7.29927002e-003 7.29927002e-003 7.29927002e-003
      7.29927002e-003 0. 7.29927002e-003 0. 7.29927002e-003 0. 0. 0.
      7.29927002e-003 0. 0. 1.45985400e-002 0. 0. 7.29927002e-003
      7.29927002e-003 0. 0. 0. 0. 0. 7.29927002e-003 0. 0. 0. 0. 0. 0.
      0. 0. 0. 0. 0. 7.29927002e-003 7.29927002e-003 1.45985400e-002 0.
      0. 0. 0. 7.29927002e-003 0. 0. 0. 7.29927002e-003 7.29927002e-003
      0. 0. 0. 0. 0. 0. 0. 7.29927002e-003 0. 0. 0. 7.29927002e-003 0.
      0. 0. 0. 0. 7.29927002e-003 0. 0. 0. 0. 0. 0. 7.29927002e-003
      1.45985400e-002 2.18978096e-002 0. 0. 0. 0. 1.45985400e-002 0.
      7.29927002e-003 0. 0. 0. 0. 0. 7.29927002e-003 0. 0. 0.
      7.29927002e-003 0. 7.29927002e-003 0. 0. 0. 0. 7.29927002e-003 0.
      0. 0. 0. 0. 7.29927002e-003 0. 0. 0. 0. 0. 0. 0. 0. 0. 0. 0. 0. 0.
      7.29927002e-003 2.18978096e-002 0. 0. 0. 0. 0. 7.29927002e-003
      7.29927002e-003 0. 0. 0. 0. 0. 7.29927002e-003 0. 1.45985400e-002
      0. 7.29927002e-003 0. 0. 0. 7.29927002e-003 7.29927002e-003
      7.29927002e-003 7.29927002e-003 0. 0. 0. 0. 0. 0. 0. 0.
      7.29927002e-003 7.29927002e-003 0. 0. 0. 0. 7.29927002e-003 0.</_>
    <_>
      0. 0. 2.43902430e-002 1.21951215e-002 0. 0. 0. 0. 0. 0. 0. 0. 0.
      0. 0. 0. 6.09756075e-003 0. 6.09756075e-003 6.09756075e-003 0.
      6.09756075e-003 0. 6.09756075e-003 6.09756075e-003 0. 0. 0. 0.
      6.09756075e-003 6.09756075e-003 0. 6.09756075e-003 6.09756075e-003
      0. 0. 6.09756075e-003 0. 6.09756075e-003 1.21951215e-002
      6.09756075e-003 0. 6.09756075e-003 0. 0. 0. 1.82926822e-002 0.
      6.09756075e-003 6.09756075e-003 1.21951215e-002 6.09756075e-003 0.
      0. 0. 0. 0. 1.21951215e-002 0. 0. 6.09756075e-003 6.09756075e-003
      6.09756075e-003 6.09756075e-003 6.09756075e-003 0. 0. 0. 0. 0. 0.
      0. 0. 0. 0. 6.09756075e-003 0. 0. 0. 6.09756075e-003
      6.09756075e-003 0. 1.21951215e-002 6.09756075e-003 0. 0. 0. 0.
      6.09756075e-003 0. 0. 6.09756075e-003 6.09756075e-003
      6.09756075e-003 0. 0. 0. 0. 6.09756075e-003 0. 0. 0. 0.
      6.09756075e-003 6.09756075e-003 0. 1.21951215e-002 6.09756075e-003
      1.21951215e-002 6.09756075e-003 6.09756075e-003 0. 0.
      6.09756075e-003 0. 0. 6.09756075e-003 0. 1.82926822e-002
      6.09756075e-003 0. 6.09756075e-003 6.09756075e-003 6.09756075e-003
      0. 6.09756075e-003 0. 6.09756075e-003 6.09756075e-003 0. 0. 0.
      6.09756075e-003 0. 0. 0. 6.09756075e-003 0. 6.09756075e-003 0.
      6.09756075e-003 6.09756075e-003 6.09756075e-003 0. 0. 0. 0.
      6.09756075e-003 0. 0. 0. 6.09756075e-003 0. 0. 0. 0. 0. 0. 0. 0.
      6.09756075e-003 6.09756075e-003 0. 0. 0. 0. 6.09756075e-003
      6.09756075e-003 0. 0. 0. 0. 0. 0. 0. 6.09756075e-003 0.
      6.09756075e-003 0. 0. 0. 0. 0. 6.09756075e-003 0. 0. 0. 0. 0.
      6.09756075e-003 0. 6.09756075e-003 0. 0. 0. 0. 0. 0. 0. 0. 0. 0.
      0. 0. 0. 0. 6.09756075e-003 0. 0. 6.09756075e-003 0.
      6.09756075e-003 0. 0. 0. 0. 0. 6.09756075e-003 6.09756075e-003 0.
      0. 6.09756075e-003 6.09756075e-003 0. 0. 0. 0. 0. 0. 0. 0.
      6.09756075e-003 6.09756075e-003 0. 0. 0. 6.09756075e-003 0.
      1.82926822e-002 6.09756075e-003 0. 6.09756075e-003 0. 0.
      6.09756075e-003 0. 0. 0. 6.09756075e-003 6.09756075e-003 0. 0. 0.
      1.21951215e-002 6.09756075e-003 0. 1.82926822e-002 0. 0. 0. 0.
      6.09756075e-003 0. 0. 0. 0. 0. 1.21951215e-002 0. 0. 0. 0.
      6.09756075e-003 1.21951215e-002 1.21951215e-002 0. 6.09756075e-003
      6.09756075e-003 0. 0. 0. 6.09756075e-003 6.09756075e-003
      6.09756075e-003 0. 0. 0. 0. 0. 0. 0. 0. 0. 0. 6.09756075e-003
      6.09756075e-003 0. 6.09756075e-003 0. 6.09756075e-003 0. 0. 0. 0.
      0. 6.09756075e-003 0. 0. 0. 0. 0. 0. 0. 0. 1.21951215e-002 0.
      1.21951215e-002 6.09756075e-003 0. 0. 0. 0. 6.09756075e-003 0. 0.
      0. 0. 0. 0. 0. 0. 0. 0. 0. 6.09756075e-003 0. 0. 6.09756075e-003
      6.09756075e-003 0. 0. 6.09756075e-003 0. 0. 0. 0. 0.
      1.82926822e-002 0. 0. 6.09756075e-003 6.09756075e-003 0.
      6.09756075e-003 6.09756075e-003 6.09756075e-003 0. 0.
      6.09756075e-003 0. 0. 0. 0. 0. 0. 6.09756075e-003 6.09756075e-003
      0. 0. 0. 0. 6.09756075e-003 0. 0. 6.09756075e-003 0. 0.
      6.09756075e-003 1.82926822e-002 0. 0. 0. 0. 6.09756075e-003 0. 0.
      0. 1.21951215e-002 0. 0. 6.09756075e-003 6.09756075e-003
      6.09756075e-003 0. 6.09756075e-003 0. 6.09756075e-003 0.
      6.09756075e-003 0.</_>
    <_>
      0. 0. 0. 0. 0. 4.95049497e-003 4.95049497e-003 0. 4.95049497e-003
      4.95049497e-003 0. 0. 4.95049497e-003 0. 0. 0. 0. 4.95049497e-003
      0. 0. 0. 0. 9.90098994e-003 0. 4.95049497e-003 0. 0. 0. 0. 0. 0.
      0. 0. 0. 4.95049497e-003 0. 0. 0. 0. 0. 4.95049497e-003 0. 0. 0.
      0. 4.95049497e-003 4.95049497e-003 0. 9.90098994e-003 0.
      4.95049497e-003 0. 4.95049497e-003 0. 4.95049497e-003 0.
      4.95049497e-003 0. 0. 0. 4.95049497e-003 9.90098994e-003 0. 0. 0.
      4.95049497e-003 4.95049497e-003 0. 0. 0. 4.95049497e-003 0. 0. 0.
      0. 4.95049497e-003 0. 0. 4.95049497e-003 0. 0. 4.95049497e-003 0.
      1.98019799e-002 0. 4.95049497e-003 0. 0. 0. 0. 0. 0. 0.
      4.95049497e-003 0. 0. 4.95049497e-003 4.95049497e-003 0. 0. 0. 0.
      9.90098994e-003 4.95049497e-003 4.95049497e-003 4.95049497e-003
      4.95049497e-003 0. 4.95049497e-003 9.90098994e-003 0.
      9.90098994e-003 0. 0. 4.95049497e-003 0. 0. 4.95049497e-003
      4.95049497e-003 0. 0. 0. 0. 9.90098994e-003 0. 0. 0.
      4.95049497e-003 0. 0. 0. 9.90098994e-003 0. 0. 4.95049497e-003 0.
      0. 4.95049497e-003 4.95049497e-003 0. 4.95049497e-003
      9.90098994e-003 4.95049497e-003 0. 0. 0. 4.95049497e-003 0.
      4.95049497e-003 4.95049497e-003 0. 0. 0. 0. 4.95049497e-003 0. 0.
      0. 0. 0. 1.48514844e-002 9.90098994e-003 0. 0. 4.95049497e-003
      4.95049497e-003 0. 0. 0. 0. 4.95049497e-003 4.95049497e-003
      9.90098994e-003 4.95049497e-003 4.95049497e-003 0. 9.90098994e-003
      1.48514844e-002 0. 0. 0. 0. 0. 4.95049497e-003 0. 0. 0. 0.
      4.95049497e-003 0. 0. 0. 0. 0. 4.95049497e-003 4.95049497e-003
      4.95049497e-003 4.95049497e-003 4.95049497e-003 0. 0.
      9.90098994e-003 4.95049497e-003 4.95049497e-003 0. 0.
      4.95049497e-003 0. 0. 0. 0. 4.95049497e-003 4.95049497e-003 0.
      9.90098994e-003 0. 0. 0. 0. 0. 4.95049497e-003 0. 0. 0. 0.
      4.95049497e-003 0. 0. 4.95049497e-003 4.95049497e-003
      4.95049497e-003 0. 0. 0. 4.95049497e-003 0. 0. 0. 0. 0. 0.
      4.95049497e-003 9.90098994e-003 9.90098994e-003 4.95049497e-003 0.
      9.90098994e-003 4.95049497e-003 4.95049497e-003 9.90098994e-003 0.
      0. 0. 0. 0. 0. 0. 4.95049497e-003 0. 0. 0. 4.95049497e-003 0. 0.
      4.95049497e-003 4.95049497e-003 0. 4.95049497e-003 0.
      4.95049497e-003 0. 9.90098994e-003 0. 0. 4.95049497e-003 0.
      4.95049497e-003 0. 9.90098994e-003 0. 0. 4.95049497e-003 0. 0.
      9.90098994e-003 0. 1.48514844e-002 0. 4.95049497e-003
      4.95049497e-003 0. 4.95049497e-003 0. 0. 0. 0. 4.95049497e-003
      4.95049497e-003 9.90098994e-003 4.95049497e-003 0. 0.
      9.90098994e-003 0. 0. 0. 0. 4.95049497e-003 1.48514844e-002
      4.95049497e-003 4.95049497e-003 4.95049497e-003 1.98019799e-002 0.
      9.90098994e-003 0. 0. 9.90098994e-003 0. 4.95049497e-003
      1.48514844e-002 0. 0. 1.98019799e-002 0. 0. 4.95049497e-003 0.
      4.95049497e-003 4.95049497e-003 0. 9.90098994e-003 0. 0. 0. 0.
      4.95049497e-003 0. 0. 0. 0. 0. 0. 9.90098994e-003 4.95049497e-003
      9.90098994e-003 9.90098994e-003 4.95049497e-003 0. 0. 0.
      9.90098994e-003 0. 0. 0. 4.95049497e-003 0. 0. 0. 0. 0.
      9.90098994e-003 0. 0. 0. 0. 4.95049497e-003 0. 4.95049497e-003 0.
      0. 4.95049497e-003 9.90098994e-003 0. 0. 0. 0. 0. 0.
      4.95049497e-003 4.95049497e-003 0. 0. 0. 0. 4.95049497e-003 0. 0.
      4.95049497e-003 9.90098994e-003 0. 0. 0. 0. 4.95049497e-003 0. 0.
      0. 0. 9.90098994e-003</_>
    <_>
      0. 0. 5.81395347e-003 0. 0. 5.81395347e-003 1.16279069e-002 0.
      5.81395347e-003 0. 0. 0. 0. 0. 0. 5.81395347e-003 0.
      5.81395347e-003 0. 0. 0. 5.81395347e-003 5.81395347e-003 0.
      5.81395347e-003 0. 0. 0. 0. 0. 0. 1.16279069e-002 0. 0.
      5.81395347e-003 1.16279069e-002 0. 5.81395347e-003 0.
      1.16279069e-002 1.16279069e-002 5.81395347e-003 0. 0.
      1.16279069e-002 0. 0. 1.16279069e-002 1.16279069e-002 0.
      1.16279069e-002 0. 0. 0. 0. 0. 0. 0. 0. 5.81395347e-003 0. 0. 0.
      5.81395347e-003 5.81395347e-003 0. 0. 5.81395347e-003 0. 0. 0. 0.
      5.81395347e-003 0. 0. 5.81395347e-003 0. 5.81395347e-003 0. 0. 0.
      5.81395347e-003 5.81395347e-003 1.16279069e-002 5.81395347e-003
      1.16279069e-002 0. 5.81395347e-003 0. 0. 0. 0. 0. 0.
      5.81395347e-003 5.81395347e-003 1.16279069e-002 0. 0. 0.
      5.81395347e-003 0. 0. 0. 0. 0. 0. 0. 0. 0. 0. 5.81395347e-003
      5.81395347e-003 0. 5.81395347e-003 5.81395347e-003 0. 0. 0. 0. 0.
      0. 0. 5.81395347e-003 0. 1.16279069e-002 0. 5.81395347e-003 0.
      5.81395347e-003 0. 1.16279069e-002 0. 0. 5.81395347e-003 0. 0.
      1.16279069e-002 5.81395347e-003 0. 0. 5.81395347e-003 0. 0. 0.
      5.81395347e-003 0. 0. 0. 1.16279069e-002 5.81395347e-003 0. 0.
      5.81395347e-003 0. 0. 5.81395347e-003 0. 1.16279069e-002
      5.81395347e-003 5.81395347e-003 0. 1.16279069e-002 5.81395347e-003
      0. 5.81395347e-003 0. 0. 0. 1.16279069e-002 0. 5.81395347e-003 0.
      5.81395347e-003 0. 0. 0. 5.81395347e-003 0. 5.81395347e-003 0. 0.
      0. 0. 5.81395347e-003 0. 0. 5.81395347e-003 1.16279069e-002
      5.81395347e-003 0. 0. 5.81395347e-003 0. 5.81395347e-003 0. 0.
      5.81395347e-003 5.81395347e-003 0. 1.16279069e-002 0. 0. 0. 0. 0.
      0. 0. 0. 0. 5.81395347e-003 0. 5.81395347e-003 0. 0. 0.
      1.16279069e-002 0. 5.81395347e-003 0. 5.81395347e-003 0.
      5.81395347e-003 0. 0. 5.81395347e-003 0. 0. 0. 0. 0. 0. 0. 0. 0.
      1.16279069e-002 0. 5.81395347e-003 1.16279069e-002 0. 0. 0.
      1.74418613e-002 5.81395347e-003 5.81395347e-003 0. 0. 0.
      5.81395347e-003 1.16279069e-002 0. 5.81395347e-003 1.16279069e-002
      0. 0. 5.81395347e-003 0. 0. 0. 0. 0. 5.81395347e-003
      5.81395347e-003 5.81395347e-003 0. 5.81395347e-003 0. 0.
      5.81395347e-003 0. 0. 0. 0. 0. 5.81395347e-003 0. 0. 0. 0. 0. 0.
      0. 0. 0. 0. 5.81395347e-003 1.74418613e-002 5.81395347e-003 0. 0.
      0. 0. 5.81395347e-003 0. 0. 0. 0. 0. 5.81395347e-003
      5.81395347e-003 0. 5.81395347e-003 5.81395347e-003 5.81395347e-003
      0. 0. 0. 0. 0. 0. 5.81395347e-003 0. 0. 0. 0. 0. 0. 0. 0.
      5.81395347e-003 1.16279069e-002 0. 5.81395347e-003 5.81395347e-003
      5.81395347e-003 0. 0. 0. 5.81395347e-003 5.81395347e-003
      5.81395347e-003 5.81395347e-003 5.81395347e-003 0. 0. 0. 0. 0. 0.
      0. 0. 5.81395347e-003 0. 0. 0. 0. 5.81395347e-003 0. 0. 0. 0.
      5.81395347e-003 1.16279069e-002 5.81395347e-003 0. 0. 0. 0.
      5.81395347e-003 5.81395347e-003 0. 5.81395347e-003 0.
      5.81395347e-003 0. 0. 1.16279069e-002 0. 5.81395347e-003
      5.81395347e-003 5.81395347e-003 0. 1.16279069e-002 0. 0. 0. 0. 0.
      0. 0. 0. 0. 0. 0. 0. 0. 0. 0. 5.81395347e-003 5.81395347e-003 0.
      0. 5.81395347e-003 0. 0. 0. 0. 0. 1.16279069e-002 0.</_>
    <_>
      0. 0. 0. 0. 1.66666675e-002 0. 0. 0. 0. 0. 0. 0. 0. 0. 0.
      3.33333351e-002 0. 1.66666675e-002 0. 0. 0. 0. 0. 0. 0. 0. 0.
      1.66666675e-002 0. 0. 1.66666675e-002 0. 1.66666675e-002
      1.66666675e-002 0. 0. 0. 0. 1.66666675e-002 0. 0. 0. 0. 0. 0.
      1.66666675e-002 1.66666675e-002 0. 0. 1.66666675e-002
      3.33333351e-002 0. 1.66666675e-002 1.66666675e-002 0. 0. 0. 0. 0.
      0. 0. 0. 0. 0. 1.66666675e-002 0. 0. 0. 0. 0. 0. 0. 0. 0. 0. 0. 0.
      0. 0. 0. 1.66666675e-002 0. 0. 0. 0. 0. 0. 0. 0. 0. 0. 0. 0. 0. 0.
      0. 0. 0. 1.66666675e-002 0. 0. 1.66666675e-002 0. 0.
      1.66666675e-002 0. 0. 0. 0. 0. 0. 0. 0. 0. 0. 0. 0. 0. 0. 0. 0.
      3.33333351e-002 0. 0. 0. 0. 0. 0. 0. 0. 1.66666675e-002 0. 0. 0.
      0. 0. 0. 0. 0. 1.66666675e-002 0. 1.66666675e-002 0. 0. 0. 0. 0.
      0. 0. 0. 0. 3.33333351e-002 0. 1.66666675e-002 0. 0. 0. 0.
      1.66666675e-002 0. 0. 0. 0. 0. 0. 0. 0. 0. 0. 0. 0. 0. 0.
      1.66666675e-002 0. 1.66666675e-002 1.66666675e-002 0. 0. 0. 0. 0.
      0. 0. 0. 0. 0. 1.66666675e-002 0. 0. 1.66666675e-002 0. 0. 0. 0.
      0. 0. 0. 1.66666675e-002 0. 1.66666675e-002 0. 0. 0. 0.
      1.66666675e-002 1.66666675e-002 0. 0. 0. 0. 0. 0. 0. 0. 0. 0.
      1.66666675e-002 0. 0. 0. 0. 0. 0. 0. 0. 0. 0. 0. 0. 0. 0.
      1.66666675e-002 0. 0. 0. 0. 0. 0. 0. 0. 0. 0. 0. 1.66666675e-002
      0. 0. 0. 0. 0. 0. 0. 0. 0. 1.66666675e-002 0. 0. 0. 0. 0. 0. 0. 0.
      0. 0. 0. 0. 0. 0. 0. 0. 0. 0. 1.66666675e-002 1.66666675e-002 0.
      0. 0. 0. 0. 0. 0. 0. 0. 1.66666675e-002 0. 0. 1.66666675e-002 0.
      1.66666675e-002 0. 0. 0. 0. 0. 0. 1.66666675e-002 0. 0. 0.
      1.66666675e-002 0. 0. 0. 0. 0. 0. 0. 0. 0. 0. 0. 0. 0. 0. 0. 0. 0.
      0. 0. 0. 1.66666675e-002 0. 0. 0. 0. 1.66666675e-002 0. 0. 0. 0.
      0. 1.66666675e-002 0. 0. 1.66666675e-002 0. 0. 0. 0. 0. 0. 0. 0.
      0. 0. 0. 0. 0. 1.66666675e-002 0. 0. 0. 0. 0. 0. 1.66666675e-002
      1.66666675e-002 0. 0. 0. 0. 0. 0. 1.66666675e-002 0. 0. 0. 0. 0.
      0. 0. 0. 0. 0. 0. 0. 0. 0. 1.66666675e-002 0. 0. 0. 0. 0. 0. 0. 0.
      0. 0. 0. 0. 0. 0. 0. 0. 0. 0. 1.66666675e-002 0.</_>
    <_>
      0. 0. 0. 0. 0. 9.52380989e-003 9.52380989e-003 0. 0. 0.
      1.90476198e-002 0. 9.52380989e-003 0. 0. 0. 9.52380989e-003 0. 0.
      0. 0. 0. 0. 9.52380989e-003 0. 9.52380989e-003 0. 0. 0. 0.
      2.85714306e-002 0. 0. 9.52380989e-003 9.52380989e-003 0.
      9.52380989e-003 0. 0. 9.52380989e-003 9.52380989e-003 0.
      9.52380989e-003 0. 0. 0. 0. 0. 0. 1.90476198e-002 9.52380989e-003
      0. 0. 4.76190485e-002 0. 0. 0. 0. 1.90476198e-002 0.
      9.52380989e-003 9.52380989e-003 0. 0. 0. 0. 0. 0. 0. 0. 0. 0. 0.
      0. 0. 9.52380989e-003 0. 0. 0. 9.52380989e-003 0. 0. 0.
      9.52380989e-003 0. 0. 9.52380989e-003 0. 0. 0. 9.52380989e-003
      9.52380989e-003 9.52380989e-003 9.52380989e-003 0. 0. 0. 0.
      9.52380989e-003 2.85714306e-002 0. 9.52380989e-003 0.
      9.52380989e-003 0. 9.52380989e-003 9.52380989e-003 9.52380989e-003
      0. 0. 9.52380989e-003 0. 9.52380989e-003 0. 0. 0. 0. 0.
      9.52380989e-003 0. 0. 1.90476198e-002 0. 0. 9.52380989e-003 0. 0.
      0. 0. 0. 0. 0. 9.52380989e-003 0. 0. 0. 0. 0. 0. 0. 0. 0. 0. 0. 0.
      0. 9.52380989e-003 9.52380989e-003 9.52380989e-003 0. 0. 0. 0. 0.
      0. 0. 9.52380989e-003 9.52380989e-003 9.52380989e-003 0. 0. 0. 0.
      0. 0. 0. 0. 0. 9.52380989e-003 0. 0. 0. 0. 9.52380989e-003 0. 0.
      0. 0. 0. 0. 0. 0. 0. 0. 0. 9.52380989e-003 0. 0. 9.52380989e-003
      9.52380989e-003 0. 0. 0. 0. 0. 0. 0. 0. 9.52380989e-003 0. 0. 0.
      0. 0. 0. 9.52380989e-003 0. 0. 0. 0. 0. 0. 0. 0. 0. 0. 0. 0. 0. 0.
      9.52380989e-003 0. 9.52380989e-003 0. 0. 0. 0. 0. 0. 0. 0. 0. 0.
      0. 0. 0. 9.52380989e-003 9.52380989e-003 0. 0. 0. 0.
      1.90476198e-002 0. 0. 0. 0. 0. 9.52380989e-003 0. 0.
      9.52380989e-003 0. 0. 9.52380989e-003 0. 0. 0. 0. 0. 0. 0. 0. 0.
      0. 0. 0. 9.52380989e-003 0. 0. 0. 0. 0. 0. 0. 9.52380989e-003 0.
      9.52380989e-003 0. 0. 0. 0. 9.52380989e-003 0. 9.52380989e-003 0.
      0. 9.52380989e-003 0. 9.52380989e-003 0. 0. 0. 0. 0. 0. 0. 0. 0.
      0. 0. 0. 0. 0. 0. 9.52380989e-003 0. 0. 0. 0. 0. 0. 0. 0.
      9.52380989e-003 1.90476198e-002 0. 0. 0. 0. 0. 0. 9.52380989e-003
      0. 0. 0. 0. 9.52380989e-003 0. 0. 0. 0. 0. 0. 9.52380989e-003
      9.52380989e-003 0. 0. 0. 9.52380989e-003 0. 9.52380989e-003 0.
      9.52380989e-003 0. 0. 0. 9.52380989e-003 0. 0. 0. 0. 0. 0.
      9.52380989e-003 0. 0. 0. 9.52380989e-003 2.85714306e-002 0. 0. 0.
      0. 0. 0. 9.52380989e-003 0. 0. 0. 0. 0. 0. 0. 9.52380989e-003 0.
      0. 9.52380989e-003 0. 0. 0. 9.52380989e-003 0. 0. 0. 0. 0. 0.
      9.52380989e-003 0. 0. 0. 0. 9.52380989e-003 0. 0. 0. 0. 0. 0.</_>
    <_>
      7.81250000e-003 0. 0. 0. 0. 0. 0. 0. 0. 0. 7.81250000e-003 0. 0.
      0. 7.81250000e-003 2.34375000e-002 0. 7.81250000e-003 0. 0. 0. 0.
      0. 0. 0. 0. 7.81250000e-003 0. 7.81250000e-003 0. 1.56250000e-002
      0. 7.81250000e-003 0. 1.56250000e-002 0. 0. 0. 0. 7.81250000e-003
      0. 7.81250000e-003 0. 0. 7.81250000e-003 2.34375000e-002
      3.12500000e-002 0. 0. 7.81250000e-003 2.34375000e-002 0. 0. 0. 0.
      0. 7.81250000e-003 0. 0. 0. 0. 7.81250000e-003 0. 7.81250000e-003
      0. 7.81250000e-003 0. 0. 0. 0. 0. 0. 0. 7.81250000e-003 0. 0. 0.
      0. 0. 0. 0. 0. 0. 0. 0. 0. 0. 7.81250000e-003 0. 0. 0. 0. 0. 0. 0.
      0. 0. 7.81250000e-003 0. 0. 0. 0. 7.81250000e-003 0. 0. 0. 0. 0.
      7.81250000e-003 0. 0. 0. 0. 0. 7.81250000e-003 0. 0.
      1.56250000e-002 2.34375000e-002 0. 0. 0. 7.81250000e-003 0. 0. 0.
      0. 0. 0. 0. 7.81250000e-003 0. 0. 0. 0. 0. 0. 0. 7.81250000e-003
      7.81250000e-003 7.81250000e-003 7.81250000e-003 7.81250000e-003 0.
      7.81250000e-003 0. 7.81250000e-003 0. 2.34375000e-002
      7.81250000e-003 7.81250000e-003 7.81250000e-003 0. 0. 0.
      7.81250000e-003 0. 0. 2.34375000e-002 0. 0. 7.81250000e-003 0. 0.
      0. 7.81250000e-003 0. 7.81250000e-003 0. 0. 0. 0. 0.
      7.81250000e-003 0. 0. 7.81250000e-003 7.81250000e-003 0. 0. 0. 0.
      0. 7.81250000e-003 0. 0. 0. 0. 7.81250000e-003 0. 0. 0.
      7.81250000e-003 0. 0. 0. 0. 7.81250000e-003 7.81250000e-003 0. 0.
      0. 0. 0. 7.81250000e-003 7.81250000e-003 7.81250000e-003
      7.81250000e-003 0. 0. 0. 0. 0. 0. 7.81250000e-003 7.81250000e-003
      0. 0. 0. 0. 7.81250000e-003 0. 0. 0. 0. 0. 0. 0. 0.
      7.81250000e-003 0. 0. 0. 0. 7.81250000e-003 1.56250000e-002 0. 0.
      0. 7.81250000e-003 0. 1.56250000e-002 7.81250000e-003 0. 0. 0. 0.
      0. 0. 0. 7.81250000e-003 7.81250000e-003 0. 7.81250000e-003 0. 0.
      0. 0. 0. 2.34375000e-002 0. 0. 7.81250000e-003 7.81250000e-003 0.
      0. 0. 0. 0. 0. 0. 0. 0. 0. 0. 0. 0. 0. 0. 0. 0. 0. 0. 0. 0.
      7.81250000e-003 0. 0. 0. 0. 7.81250000e-003 0. 0. 0. 0. 0. 0. 0.
      0. 0. 1.56250000e-002 0. 0. 0. 0. 0. 0. 7.81250000e-003 0.
      7.81250000e-003 0. 0. 0. 0. 0. 0. 0. 1.56250000e-002 0. 0. 0. 0.
      0. 7.81250000e-003 7.81250000e-003 0. 7.81250000e-003 0. 0.
      7.81250000e-003 0. 0. 0. 0. 0. 7.81250000e-003 0. 0. 0. 0.
      1.56250000e-002 7.81250000e-003 0. 0. 7.81250000e-003
      7.81250000e-003 7.81250000e-003 0. 0. 0. 0. 0. 7.81250000e-003 0.
      0. 0. 7.81250000e-003 7.81250000e-003 7.81250000e-003
      1.56250000e-002 0. 0. 0. 0. 0. 0. 7.81250000e-003 7.81250000e-003
      0. 0. 0. 0. 7.81250000e-003 7.81250000e-003 0. 0. 0. 0.
      7.81250000e-003 0. 0. 0. 0. 0. 0. 0. 7.81250000e-003 0. 0. 0. 0.
      0. 7.81250000e-003 0. 0. 0. 0. 0. 0. 0.</_>
    <_>
      1.32450331e-002 0. 0. 0. 0. 0. 6.62251655e-003 0. 0. 0. 0.
      1.32450331e-002 6.62251655e-003 0. 0. 0. 0. 1.32450331e-002 0. 0.
      0. 6.62251655e-003 6.62251655e-003 0. 0. 0. 0. 0. 0. 0.
      1.32450331e-002 0. 0. 0. 0. 6.62251655e-003 0. 0. 0. 0. 0. 0. 0.
      6.62251655e-003 6.62251655e-003 0. 1.32450331e-002 0.
      1.32450331e-002 0. 0. 0. 6.62251655e-003 0. 6.62251655e-003
      6.62251655e-003 0. 0. 0. 2.64900662e-002 0. 6.62251655e-003 0. 0.
      0. 1.32450331e-002 0. 0. 0. 0. 6.62251655e-003 6.62251655e-003
      6.62251655e-003 0. 0. 0. 6.62251655e-003 6.62251655e-003 0.
      1.32450331e-002 0. 6.62251655e-003 0. 0. 6.62251655e-003
      6.62251655e-003 0. 0. 6.62251655e-003 0. 0. 0. 0. 0. 0. 0.
      6.62251655e-003 0. 0. 0. 0. 0. 0. 0. 0. 0. 0. 0. 0.
      1.32450331e-002 0. 6.62251655e-003 0. 0. 0. 6.62251655e-003 0. 0.
      0. 0. 0. 0. 6.62251655e-003 0. 0. 6.62251655e-003 0.
      1.32450331e-002 0. 0. 0. 0. 0. 0. 1.32450331e-002 0. 0.
      6.62251655e-003 6.62251655e-003 0. 0. 6.62251655e-003 0. 0. 0. 0.
      6.62251655e-003 6.62251655e-003 0. 0. 6.62251655e-003
      6.62251655e-003 0. 0. 6.62251655e-003 0. 0. 0. 0. 0. 0. 0.
      6.62251655e-003 0. 6.62251655e-003 6.62251655e-003 0. 0.
      6.62251655e-003 6.62251655e-003 0. 0. 0. 0. 0. 0. 0. 0. 0. 0. 0.
      0. 6.62251655e-003 1.32450331e-002 0. 0. 0. 0. 0. 6.62251655e-003
      0. 0. 0. 0. 1.32450331e-002 0. 0. 0. 0. 0. 1.32450331e-002
      6.62251655e-003 0. 6.62251655e-003 0. 0. 6.62251655e-003 0. 0.
      6.62251655e-003 6.62251655e-003 0. 0. 0. 0. 0. 6.62251655e-003 0.
      0. 0. 0. 0. 0. 0. 0. 0. 0. 0. 1.32450331e-002 6.62251655e-003 0.
      0. 6.62251655e-003 6.62251655e-003 0. 6.62251655e-003 0. 0. 0.
      6.62251655e-003 0. 0. 1.32450331e-002 1.32450331e-002
      6.62251655e-003 6.62251655e-003 6.62251655e-003 6.62251655e-003
      1.32450331e-002 1.32450331e-002 0. 0. 0. 6.62251655e-003 0. 0.
      6.62251655e-003 6.62251655e-003 0. 1.32450331e-002 0.
      6.62251655e-003 6.62251655e-003 0. 0. 0. 0. 1.98675506e-002 0. 0.
      0. 0. 0. 0. 0. 6.62251655e-003 0. 0. 6.62251655e-003
      6.62251655e-003 0. 6.62251655e-003 6.62251655e-003 0. 0.
      6.62251655e-003 0. 0. 0. 0. 0. 0. 0. 0. 0. 0. 6.62251655e-003 0.
      6.62251655e-003 6.62251655e-003 0. 1.98675506e-002 0. 0. 0. 0.
      6.62251655e-003 6.62251655e-003 0. 0. 0. 0. 0. 0. 0. 0. 0. 0. 0.
      6.62251655e-003 0. 0. 0. 0. 0. 0. 0. 0. 6.62251655e-003
      6.62251655e-003 0. 0. 0. 0. 6.62251655e-003 1.32450331e-002 0. 0.
      0. 0. 6.62251655e-003 0. 0. 6.62251655e-003 6.62251655e-003
      6.62251655e-003 0. 0. 0. 0. 0. 0. 0. 6.62251655e-003 0. 0. 0. 0.
      0. 0. 0. 0. 0. 6.62251655e-003 0. 1.98675506e-002 0. 0. 0. 0.
      1.32450331e-002 0. 6.62251655e-003 0. 0. 0. 0. 0. 0. 0. 0. 0.
      6.62251655e-003 2.64900662e-002 0. 0. 0. 0. 0. 6.62251655e-003 0.
      0. 0. 0. 6.62251655e-003 6.62251655e-003 0. 6.62251655e-003
      1.32450331e-002 6.62251655e-003</_>
    <_>
      0. 1.31578948e-002 6.57894742e-003 0. 0. 0. 6.57894742e-003 0.
      1.31578948e-002 0. 6.57894742e-003 6.57894742e-003 0. 0. 0. 0. 0.
      1.31578948e-002 6.57894742e-003 0. 0. 1.31578948e-002 0. 0. 0. 0.
      0. 6.57894742e-003 0. 0. 0. 0. 6.57894742e-003 0. 6.57894742e-003
      6.57894742e-003 0. 0. 0. 0. 6.57894742e-003 0. 1.31578948e-002 0.
      6.57894742e-003 2.63157897e-002 6.57894742e-003 1.31578948e-002 0.
      6.57894742e-003 1.31578948e-002 0. 0. 6.57894742e-003 0. 0.
      6.57894742e-003 6.57894742e-003 6.57894742e-003 0. 6.57894742e-003
      0. 0. 1.97368413e-002 0. 6.57894742e-003 0. 0. 0. 6.57894742e-003
      0. 0. 0. 6.57894742e-003 0. 1.97368413e-002 0. 6.57894742e-003
      6.57894742e-003 6.57894742e-003 0. 0. 0. 0. 0. 0. 0. 0.
      6.57894742e-003 0. 0. 1.31578948e-002 0. 0. 0. 0. 0. 0. 0.
      1.31578948e-002 6.57894742e-003 0. 0. 0. 6.57894742e-003 0. 0. 0.
      0. 1.31578948e-002 0. 0. 0. 0. 6.57894742e-003 0. 6.57894742e-003
      0. 0. 0. 0. 0. 0. 0. 6.57894742e-003 0. 0. 1.31578948e-002 0.
      6.57894742e-003 0. 0. 0. 0. 0. 0. 6.57894742e-003 0. 0.
      1.31578948e-002 1.31578948e-002 0. 0. 0. 0. 0. 0. 0. 0. 0. 0. 0.
      0. 0. 6.57894742e-003 0. 6.57894742e-003 0. 6.57894742e-003 0. 0.
      6.57894742e-003 0. 0. 0. 0. 0. 0. 6.57894742e-003 1.31578948e-002
      0. 0. 0. 0. 0. 0. 1.31578948e-002 1.31578948e-002 6.57894742e-003
      0. 0. 0. 0. 0. 0. 0. 0. 6.57894742e-003 6.57894742e-003
      1.31578948e-002 0. 0. 6.57894742e-003 0. 0. 1.31578948e-002 0. 0.
      6.57894742e-003 0. 6.57894742e-003 0. 0. 0. 6.57894742e-003 0.
      6.57894742e-003 6.57894742e-003 0. 0. 0. 6.57894742e-003
      1.31578948e-002 0. 0. 0. 0. 0. 0. 0. 0. 0. 0. 0. 0. 0. 0.
      6.57894742e-003 0. 6.57894742e-003 0. 0. 0. 6.57894742e-003
      6.57894742e-003 6.57894742e-003 0. 0. 0. 0. 0. 0. 1.97368413e-002
      0. 0. 0. 6.57894742e-003 0. 1.31578948e-002 0. 0. 6.57894742e-003
      0. 0. 0. 0. 0. 6.57894742e-003 6.57894742e-003 0. 0. 0. 0.
      6.57894742e-003 0. 6.57894742e-003 0. 0. 6.57894742e-003 0. 0. 0.
      6.57894742e-003 0. 0. 0. 0. 1.31578948e-002 0. 0. 6.57894742e-003
      0. 0. 0. 6.57894742e-003 0. 0. 0. 6.57894742e-003 0. 0.
      6.57894742e-003 0. 0. 0. 0. 6.57894742e-003 0. 0. 0.
      6.57894742e-003 0. 0. 0. 0. 0. 0. 0. 0. 6.57894742e-003 0. 0.
      6.57894742e-003 0. 6.57894742e-003 0. 6.57894742e-003
      1.31578948e-002 6.57894742e-003 0. 0. 0. 0. 0. 0. 0.
      6.57894742e-003 0. 0. 0. 0. 0. 6.57894742e-003 0. 0. 0. 0. 0. 0.
      1.31578948e-002 0. 0. 0. 6.57894742e-003 0. 6.57894742e-003 0.
      6.57894742e-003 0. 0. 6.57894742e-003 6.57894742e-003 0. 0.
      6.57894742e-003 0. 0. 0. 6.57894742e-003 6.57894742e-003 0. 0. 0.
      6.57894742e-003 0. 0. 6.57894742e-003 0. 0. 0. 0. 0.
      6.57894742e-003 0. 0. 0. 0. 0. 0. 6.57894742e-003 6.57894742e-003
      0. 0. 0. 0. 0. 0. 1.31578948e-002 0. 0. 6.57894742e-003 0.
      1.31578948e-002 0. 1.31578948e-002 0. 0. 0. 0. 0.</_>
    <_>
      6.84931502e-003 1.36986300e-002 0. 1.36986300e-002 0. 0.
      6.84931502e-003 0. 0. 0. 0. 0. 0. 0. 0. 0. 6.84931502e-003 0.
      6.84931502e-003 6.84931502e-003 6.84931502e-003 6.84931502e-003 0.
      0. 2.05479451e-002 1.36986300e-002 0. 0. 0. 0. 6.84931502e-003
      6.84931502e-003 0. 0. 6.84931502e-003 1.36986300e-002
      1.36986300e-002 0. 0. 0. 0. 0. 0. 0. 6.84931502e-003
      1.36986300e-002 6.84931502e-003 1.36986300e-002 1.36986300e-002
      1.36986300e-002 1.36986300e-002 0. 0. 0. 0. 0. 6.84931502e-003 0.
      0. 6.84931502e-003 0. 0. 6.84931502e-003 6.84931502e-003 0. 0. 0.
      6.84931502e-003 6.84931502e-003 0. 0. 6.84931502e-003 0. 0.
      6.84931502e-003 2.05479451e-002 0. 1.36986300e-002 0. 0. 0. 0. 0.
      0. 0. 6.84931502e-003 6.84931502e-003 0. 0. 6.84931502e-003
      1.36986300e-002 0. 0. 0. 0. 0. 0. 6.84931502e-003 0. 0. 0.
      6.84931502e-003 0. 0. 6.84931502e-003 0. 6.84931502e-003 0. 0. 0.
      0. 0. 0. 0. 6.84931502e-003 6.84931502e-003 0. 0. 6.84931502e-003
      6.84931502e-003 0. 0. 0. 0. 0. 0. 0. 0. 0. 0. 0. 0. 0. 0. 0. 0. 0.
      0. 0. 0. 0. 0. 0. 0. 0. 0. 0. 0. 6.84931502e-003 1.36986300e-002
      0. 0. 0. 0. 0. 0. 6.84931502e-003 0. 2.05479451e-002 0. 0.
      1.36986300e-002 0. 1.36986300e-002 0. 1.36986300e-002 0. 0.
      6.84931502e-003 0. 6.84931502e-003 0. 6.84931502e-003 0. 0. 0. 0.
      0. 6.84931502e-003 0. 6.84931502e-003 0. 6.84931502e-003 0. 0.
      6.84931502e-003 0. 0. 2.73972601e-002 6.84931502e-003 0. 0. 0.
      6.84931502e-003 0. 6.84931502e-003 0. 0. 0. 1.36986300e-002
      2.73972601e-002 0. 6.84931502e-003 0. 0. 6.84931502e-003 0. 0. 0.
      0. 0. 0. 0. 0. 6.84931502e-003 0. 6.84931502e-003 0.
      6.84931502e-003 6.84931502e-003 6.84931502e-003 0. 0.
      6.84931502e-003 0. 0. 0. 0. 0. 0. 0. 0. 0. 0. 0. 6.84931502e-003
      0. 0. 0. 6.84931502e-003 0. 6.84931502e-003 0. 0. 0. 0. 0. 0. 0.
      0. 0. 1.36986300e-002 0. 0. 6.84931502e-003 0. 0. 0. 0.
      6.84931502e-003 0. 6.84931502e-003 6.84931502e-003 6.84931502e-003
      0. 0. 0. 0. 0. 1.36986300e-002 0. 0. 0. 6.84931502e-003 0. 0. 0.
      0. 0. 0. 0. 0. 0. 0. 0. 2.05479451e-002 0. 0. 0. 0. 0. 0. 0. 0. 0.
      0. 0. 0. 0. 0. 0. 0. 0. 0. 0. 0. 0. 6.84931502e-003 0. 0. 0. 0.
      6.84931502e-003 6.84931502e-003 0. 0. 1.36986300e-002 0. 0. 0. 0.
      0. 0. 0. 0. 0. 6.84931502e-003 6.84931502e-003 0. 1.36986300e-002
      6.84931502e-003 0. 0. 1.36986300e-002 0. 0. 0. 0. 0.
      6.84931502e-003 1.36986300e-002 0. 0. 0. 6.84931502e-003 0. 0. 0.
      0. 0. 0. 0. 6.84931502e-003 0. 0. 0. 0. 0. 6.84931502e-003
      2.05479451e-002 0. 6.84931502e-003 0. 0. 0. 0. 0. 0. 0. 0. 0. 0.
      0. 0. 0. 6.84931502e-003 0. 0. 6.84931502e-003 6.84931502e-003 0.
      0. 6.84931502e-003 0. 0. 0. 0. 0. 0. 0. 0. 0. 6.84931502e-003 0.
      6.84931502e-003 0. 0. 0. 0. 0.</_>
    <_>
      0. 0. 6.57894742e-003 0. 0. 0. 6.57894742e-003 0. 0. 0. 0.
      6.57894742e-003 0. 6.57894742e-003 0. 0. 0. 1.31578948e-002 0. 0.
      0. 0. 0. 0. 6.57894742e-003 6.57894742e-003 6.57894742e-003
      6.57894742e-003 0. 0. 6.57894742e-003 0. 0. 0. 0. 0.
      1.31578948e-002 0. 0. 0. 0. 0. 0. 0. 1.31578948e-002 0. 0.
      6.57894742e-003 0. 0. 0. 0. 0. 6.57894742e-003 0. 1.31578948e-002
      0. 1.31578948e-002 0. 0. 0. 6.57894742e-003 0. 6.57894742e-003 0.
      0. 6.57894742e-003 0. 0. 0. 6.57894742e-003 0. 0. 0.
      1.31578948e-002 0. 0. 6.57894742e-003 0. 0. 0. 0. 0.
      6.57894742e-003 1.31578948e-002 0. 0. 0. 0. 0. 0. 0. 0. 0. 0. 0.
      0. 6.57894742e-003 6.57894742e-003 0. 0. 0. 0. 0. 0. 0. 0. 0. 0.
      1.31578948e-002 0. 1.31578948e-002 0. 0. 0. 1.31578948e-002
      6.57894742e-003 0. 0. 6.57894742e-003 0. 0. 0. 0. 0. 0. 0.
      1.31578948e-002 0. 0. 0. 0. 0. 0. 1.31578948e-002 0. 0.
      1.31578948e-002 1.31578948e-002 6.57894742e-003 0. 0.
      6.57894742e-003 0. 0. 0. 0. 0. 0. 0. 0. 0. 1.31578948e-002
      1.97368413e-002 0. 0. 6.57894742e-003 6.57894742e-003 0.
      6.57894742e-003 0. 6.57894742e-003 0. 0. 0. 0. 0. 0. 0. 0. 0. 0.
      6.57894742e-003 6.57894742e-003 6.57894742e-003 0. 6.57894742e-003
      0. 0. 0. 6.57894742e-003 1.31578948e-002 6.57894742e-003
      6.57894742e-003 0. 0. 0. 0. 0. 0. 0. 1.31578948e-002 0. 0. 0.
      6.57894742e-003 1.31578948e-002 6.57894742e-003 0. 6.57894742e-003
      0. 1.31578948e-002 6.57894742e-003 0. 0. 0. 6.57894742e-003 0.
      6.57894742e-003 0. 1.97368413e-002 0. 6.57894742e-003 0. 0.
      1.31578948e-002 1.31578948e-002 0. 0. 0. 0. 0. 0. 0. 0.
      6.57894742e-003 0. 6.57894742e-003 0. 6.57894742e-003
      1.31578948e-002 0. 0. 1.31578948e-002 0. 6.57894742e-003
      6.57894742e-003 6.57894742e-003 0. 0. 0. 0. 0. 6.57894742e-003 0.
      0. 0. 0. 0. 6.57894742e-003 6.57894742e-003 0. 6.57894742e-003 0.
      0. 0. 0. 0. 6.57894742e-003 0. 0. 0. 0. 0. 0. 1.31578948e-002 0.
      0. 0. 0. 0. 6.57894742e-003 0. 6.57894742e-003 0. 6.57894742e-003
      0. 0. 0. 0. 0. 0. 6.57894742e-003 6.57894742e-003 0. 0.
      6.57894742e-003 0. 0. 0. 6.57894742e-003 0. 0. 6.57894742e-003 0.
      0. 0. 0. 6.57894742e-003 0. 0. 0. 0. 6.57894742e-003 0. 0.
      6.57894742e-003 0. 6.57894742e-003 6.57894742e-003 0. 0.
      6.57894742e-003 0. 0. 0. 0. 1.31578948e-002 0. 6.57894742e-003 0.
      0. 0. 1.31578948e-002 0. 0. 0. 6.57894742e-003 6.57894742e-003
      1.31578948e-002 0. 1.97368413e-002 0. 0. 6.57894742e-003 0. 0. 0.
      0. 6.57894742e-003 6.57894742e-003 0. 0. 0. 6.57894742e-003 0. 0.
      0. 0. 6.57894742e-003 6.57894742e-003 0. 0. 0. 0. 0. 0.
      6.57894742e-003 0. 6.57894742e-003 0. 0. 0. 6.57894742e-003 0. 0.
      0. 0. 0. 0. 0. 0. 0. 0. 0. 0. 0. 0. 0. 0. 0. 0. 0. 6.57894742e-003
      6.57894742e-003 0. 0. 0. 0. 0. 0. 0. 6.57894742e-003
      6.57894742e-003 0. 0. 1.31578948e-002 0. 1.31578948e-002
      1.97368413e-002</_>
    <_>
      0. 1.03092780e-002 0. 0. 0. 0. 1.03092780e-002 0. 0. 0. 0. 0. 0.
      1.03092780e-002 0. 0. 1.03092780e-002 0. 1.03092780e-002 0. 0. 0.
      0. 0. 0. 1.03092780e-002 2.06185561e-002 1.03092780e-002 0. 0. 0.
      2.06185561e-002 1.03092780e-002 0. 0. 0. 0. 0. 0. 0.
      1.03092780e-002 1.03092780e-002 0. 0. 1.03092780e-002
      1.03092780e-002 1.03092780e-002 0. 0. 2.06185561e-002 0. 0.
      1.03092780e-002 0. 0. 0. 0. 0. 0. 0. 0. 1.03092780e-002
      1.03092780e-002 0. 0. 0. 0. 1.03092780e-002 0. 0. 0. 0. 0. 0. 0.
      0. 0. 0. 0. 0. 0. 0. 0. 0. 0. 1.03092780e-002 0. 1.03092780e-002
      0. 1.03092780e-002 0. 0. 0. 1.03092780e-002 0. 0. 0.
      1.03092780e-002 0. 0. 2.06185561e-002 1.03092780e-002 0. 0. 0.
      1.03092780e-002 0. 0. 0. 1.03092780e-002 0. 0. 0. 0. 0.
      1.03092780e-002 1.03092780e-002 0. 0. 0. 0. 0. 1.03092780e-002 0.
      0. 0. 0. 1.03092780e-002 1.03092780e-002 0. 0. 0. 0. 0. 0. 0. 0.
      0. 1.03092780e-002 0. 0. 0. 0. 0. 0. 0. 1.03092780e-002 0.
      1.03092780e-002 0. 1.03092780e-002 0. 0. 0. 0. 0. 0.
      1.03092780e-002 1.03092780e-002 1.03092780e-002 0. 0. 0. 0. 0.
      1.03092780e-002 0. 0. 0. 0. 0. 0. 0. 1.03092780e-002
      1.03092780e-002 0. 1.03092780e-002 0. 0. 0. 0. 0. 0.
      2.06185561e-002 0. 0. 0. 0. 0. 1.03092780e-002 0. 0. 0. 0. 0.
      1.03092780e-002 1.03092780e-002 0. 0. 0. 0. 0. 0. 0. 0.
      1.03092780e-002 0. 0. 0. 0. 0. 0. 0. 0. 1.03092780e-002 0. 0.
      1.03092780e-002 0. 0. 1.03092780e-002 0. 0. 0. 0. 0. 0. 0. 0. 0.
      0. 0. 0. 0. 0. 0. 0. 0. 2.06185561e-002 0. 0. 0. 2.06185561e-002
      1.03092780e-002 1.03092780e-002 1.03092780e-002 1.03092780e-002 0.
      0. 1.03092780e-002 0. 0. 0. 0. 0. 1.03092780e-002 0. 0. 0.
      1.03092780e-002 0. 0. 0. 0. 0. 0. 0. 1.03092780e-002 0. 0. 0. 0.
      0. 0. 0. 0. 0. 1.03092780e-002 0. 0. 0. 0. 0. 0. 1.03092780e-002
      0. 0. 0. 0. 0. 0. 0. 0. 0. 0. 1.03092780e-002 0. 0. 0. 0. 0. 0. 0.
      0. 0. 0. 0. 0. 0. 0. 0. 1.03092780e-002 1.03092780e-002 0. 0. 0.
      0. 0. 1.03092780e-002 0. 1.03092780e-002 0. 0. 2.06185561e-002 0.
      0. 1.03092780e-002 1.03092780e-002 0. 0. 0. 0. 0. 0. 0. 0.
      1.03092780e-002 0. 0. 0. 1.03092780e-002 0. 1.03092780e-002 0. 0.
      0. 0. 0. 0. 0. 0. 0. 0. 0. 0. 0. 0. 0. 1.03092780e-002 0. 0. 0. 0.
      0. 1.03092780e-002 0. 1.03092780e-002 1.03092780e-002 0. 0. 0.
      1.03092780e-002 0. 0. 0. 0. 0. 1.03092780e-002 0. 1.03092780e-002
      0. 0. 1.03092780e-002 0. 0. 0. 0. 2.06185561e-002 0. 0. 0. 0.
      1.03092780e-002 1.03092780e-002 0. 0. 0. 0. 0. 1.03092780e-002</_>
    <_>
      0. 0. 0. 1.36986300e-002 1.36986300e-002 0. 0. 0. 0. 0. 0.
      1.36986300e-002 0. 2.73972601e-002 0. 1.36986300e-002 0.
      1.36986300e-002 0. 0. 0. 0. 0. 0. 0. 0. 0. 0. 0. 0.
      1.36986300e-002 0. 0. 0. 0. 0. 0. 0. 0. 1.36986300e-002 0. 0. 0.
      0. 1.36986300e-002 0. 1.36986300e-002 0. 0. 2.73972601e-002 0.
      1.36986300e-002 0. 1.36986300e-002 0. 1.36986300e-002
      1.36986300e-002 0. 0. 0. 0. 0. 0. 2.73972601e-002 1.36986300e-002
      0. 0. 0. 0. 0. 0. 0. 0. 0. 0. 0. 0. 0. 0. 1.36986300e-002 0. 0. 0.
      0. 0. 0. 0. 0. 0. 0. 1.36986300e-002 0. 1.36986300e-002
      1.36986300e-002 2.73972601e-002 0. 0. 0. 0. 0. 0. 0. 0. 0. 0. 0.
      0. 0. 0. 0. 0. 0. 1.36986300e-002 0. 0. 0. 0. 0. 0. 0. 0.
      1.36986300e-002 0. 0. 0. 0. 2.73972601e-002 0. 1.36986300e-002 0.
      1.36986300e-002 0. 1.36986300e-002 0. 0. 0. 0. 0. 0. 0.
      1.36986300e-002 0. 0. 0. 0. 0. 0. 0. 0. 0. 0. 1.36986300e-002 0.
      0. 0. 0. 0. 0. 2.73972601e-002 0. 0. 0. 0. 0. 0. 1.36986300e-002
      0. 0. 0. 0. 0. 0. 0. 0. 0. 0. 0. 0. 0. 0. 0. 0. 0. 0. 0. 0.
      1.36986300e-002 0. 0. 1.36986300e-002 0. 1.36986300e-002 0. 0. 0.
      0. 0. 0. 0. 0. 1.36986300e-002 0. 0. 0. 0. 0. 0. 0.
      1.36986300e-002 0. 0. 0. 0. 0. 0. 0. 1.36986300e-002 0. 0. 0. 0.
      0. 0. 0. 0. 0. 0. 0. 0. 0. 0. 1.36986300e-002 0. 0. 0. 0. 0.
      1.36986300e-002 0. 1.36986300e-002 0. 2.73972601e-002
      2.73972601e-002 0. 0. 0. 0. 0. 0. 0. 0. 0. 0. 0. 0. 0. 0. 0. 0. 0.
      0. 1.36986300e-002 0. 0. 0. 0. 0. 0. 0. 0. 0. 0. 0. 0. 0. 0.
      1.36986300e-002 0. 0. 0. 0. 0. 0. 0. 0. 0. 0. 0. 0.
      1.36986300e-002 0. 0. 0. 1.36986300e-002 0. 1.36986300e-002 0. 0.
      0. 1.36986300e-002 0. 1.36986300e-002 0. 0. 0. 0. 0. 0. 0.
      1.36986300e-002 0. 0. 0. 0. 1.36986300e-002 1.36986300e-002 0. 0.
      0. 1.36986300e-002 0. 0. 0. 0. 0. 0. 1.36986300e-002 0. 0. 0. 0.
      0. 0. 0. 0. 0. 0. 0. 0. 0. 0. 1.36986300e-002 0. 0. 0. 0. 0. 0. 0.
      0. 0. 0. 0. 1.36986300e-002 0. 0. 0. 1.36986300e-002
      2.73972601e-002 0. 0. 0. 0. 0. 2.73972601e-002 0. 0. 0. 0. 0. 0.
      0. 0. 0. 0. 0. 0. 0. 0. 0. 0. 1.36986300e-002 1.36986300e-002 0.
      0. 0. 0. 0. 0. 0. 0. 0. 0. 0. 0. 0. 0. 0. 1.36986300e-002 0.</_>
    <_>
      0. 0. 5.78034669e-003 0. 0. 1.15606934e-002 5.78034669e-003 0. 0.
      0. 5.78034669e-003 0. 0. 0. 0. 0. 5.78034669e-003 0. 0.
      5.78034669e-003 0. 1.73410401e-002 0. 5.78034669e-003 0.
      5.78034669e-003 0. 0. 5.78034669e-003 0. 5.78034669e-003 0. 0.
      5.78034669e-003 0. 0. 0. 0. 0. 0. 1.15606934e-002 5.78034669e-003
      1.73410401e-002 0. 5.78034669e-003 5.78034669e-003 5.78034669e-003
      1.15606934e-002 0. 5.78034669e-003 5.78034669e-003 0. 0.
      1.15606934e-002 5.78034669e-003 0. 0. 5.78034669e-003 0. 0.
      5.78034669e-003 1.73410401e-002 0. 1.15606934e-002 0.
      1.15606934e-002 5.78034669e-003 0. 0. 5.78034669e-003 0. 0. 0. 0.
      5.78034669e-003 5.78034669e-003 5.78034669e-003 5.78034669e-003
      5.78034669e-003 0. 0. 5.78034669e-003 0. 0. 5.78034669e-003
      5.78034669e-003 0. 0. 1.15606934e-002 5.78034669e-003
      5.78034669e-003 5.78034669e-003 5.78034669e-003 0. 5.78034669e-003
      0. 5.78034669e-003 0. 5.78034669e-003 0. 0. 0. 0. 0. 0.
      5.78034669e-003 0. 0. 0. 1.73410401e-002 0. 5.78034669e-003 0. 0.
      0. 0. 1.15606934e-002 1.15606934e-002 0. 5.78034669e-003 0.
      5.78034669e-003 0. 0. 5.78034669e-003 1.15606934e-002 0. 0. 0. 0.
      0. 5.78034669e-003 0. 1.15606934e-002 0. 0. 5.78034669e-003
      5.78034669e-003 5.78034669e-003 0. 0. 0. 0. 5.78034669e-003
      5.78034669e-003 0. 0. 0. 5.78034669e-003 1.15606934e-002 0. 0. 0.
      0. 0. 0. 0. 0. 5.78034669e-003 0. 5.78034669e-003 0. 0. 0. 0. 0.
      0. 0. 0. 5.78034669e-003 0. 0. 0. 5.78034669e-003 0. 0. 0. 0. 0.
      0. 0. 5.78034669e-003 0. 5.78034669e-003 0. 1.15606934e-002 0. 0.
      0. 0. 0. 0. 0. 0. 0. 5.78034669e-003 0. 5.78034669e-003
      5.78034669e-003 0. 1.15606934e-002 1.15606934e-002 0. 0. 0. 0.
      5.78034669e-003 0. 1.15606934e-002 5.78034669e-003 5.78034669e-003
      0. 5.78034669e-003 5.78034669e-003 0. 0. 5.78034669e-003 0.
      5.78034669e-003 0. 0. 0. 0. 0. 0. 5.78034669e-003 0. 0.
      5.78034669e-003 5.78034669e-003 5.78034669e-003 1.73410401e-002 0.
      0. 0. 1.73410401e-002 0. 0. 5.78034669e-003 0. 0. 1.15606934e-002
      0. 0. 0. 0. 5.78034669e-003 0. 0. 0. 0. 5.78034669e-003 0. 0. 0.
      5.78034669e-003 0. 0. 0. 0. 5.78034669e-003 5.78034669e-003 0. 0.
      5.78034669e-003 0. 0. 5.78034669e-003 5.78034669e-003 0. 0. 0.
      5.78034669e-003 0. 1.15606934e-002 0. 5.78034669e-003 0.
      5.78034669e-003 0. 0. 0. 5.78034669e-003 1.15606934e-002 0.
      5.78034669e-003 1.15606934e-002 0. 0. 0. 0. 0. 0. 0. 0. 0. 0. 0.
      5.78034669e-003 0. 0. 1.15606934e-002 0. 5.78034669e-003
      5.78034669e-003 5.78034669e-003 1.15606934e-002 0. 0. 0. 0. 0. 0.
      0. 5.78034669e-003 0. 5.78034669e-003 0. 5.78034669e-003 0.
      1.15606934e-002 0. 5.78034669e-003 0. 0. 0. 0. 1.15606934e-002 0.
      5.78034669e-003 0. 0. 0. 0. 0. 5.78034669e-003 0. 0. 0. 0. 0. 0.
      5.78034669e-003 5.78034669e-003 0. 0. 0. 0. 0. 5.78034669e-003 0.
      5.78034669e-003 0. 0. 0. 5.78034669e-003 5.78034669e-003 0.
      5.78034669e-003 0. 5.78034669e-003 0. 0. 0. 0. 5.78034669e-003 0.
      0. 0. 0. 0. 0. 5.78034669e-003 0. 0. 5.78034669e-003 0. 0. 0. 0.
      0. 0. 0. 0. 0. 0. 0. 5.78034669e-003 5.78034669e-003
      5.78034669e-003 0. 0. 0. 0. 0. 0. 0. 0. 0. 5.78034669e-003</_>
    <_>
      1.06382975e-002 2.12765951e-002 0. 0. 0. 0. 0. 1.06382975e-002 0.
      0. 0. 0. 0. 0. 0. 0. 0. 1.06382975e-002 0. 0. 0. 1.06382975e-002
      0. 0. 0. 0. 0. 0. 0. 0. 1.06382975e-002 1.06382975e-002 0. 0. 0.
      0. 0. 0. 0. 0. 0. 1.06382975e-002 1.06382975e-002 0. 0. 0.
      1.06382975e-002 0. 0. 2.12765951e-002 0. 0. 0. 0. 0. 0. 0.
      1.06382975e-002 0. 0. 0. 2.12765951e-002 0. 0. 0. 0. 0.
      1.06382975e-002 0. 0. 0. 0. 1.06382975e-002 1.06382975e-002 0. 0.
      0. 0. 0. 0. 0. 1.06382975e-002 1.06382975e-002 0. 0. 0. 0.
      1.06382975e-002 0. 0. 1.06382975e-002 0. 0. 0. 0. 0. 0. 0. 0. 0.
      0. 1.06382975e-002 1.06382975e-002 0. 0. 0. 0. 2.12765951e-002 0.
      0. 0. 0. 0. 0. 0. 0. 0. 0. 2.12765951e-002 0. 0. 0. 0. 0.
      1.06382975e-002 0. 0. 0. 0. 0. 1.06382975e-002 0. 0. 0. 0. 0. 0.
      0. 2.12765951e-002 1.06382975e-002 1.06382975e-002 0. 0. 0.
      1.06382975e-002 0. 0. 1.06382975e-002 0. 0. 0. 2.12765951e-002 0.
      0. 0. 0. 0. 0. 0. 0. 0. 0. 0. 0. 0. 1.06382975e-002 0. 0. 0.
      2.12765951e-002 0. 0. 1.06382975e-002 0. 0. 0. 0. 0.
      1.06382975e-002 0. 0. 0. 0. 1.06382975e-002 0. 0. 0. 0. 0. 0. 0.
      0. 0. 0. 0. 0. 0. 0. 1.06382975e-002 1.06382975e-002 0. 0. 0. 0.
      1.06382975e-002 0. 1.06382975e-002 0. 0. 0. 0. 0. 0. 0. 0. 0. 0.
      2.12765951e-002 0. 0. 0. 0. 0. 0. 0. 0. 0. 0. 0. 0.
      1.06382975e-002 0. 0. 0. 0. 1.06382975e-002 0. 1.06382975e-002 0.
      1.06382975e-002 0. 0. 4.25531901e-002 0. 0. 2.12765951e-002
      1.06382975e-002 0. 0. 0. 0. 0. 0. 1.06382975e-002 0. 0. 0. 0. 0.
      2.12765951e-002 0. 0. 0. 0. 0. 1.06382975e-002 0. 0. 0. 0. 0. 0.
      0. 1.06382975e-002 0. 2.12765951e-002 0. 0. 0. 0. 1.06382975e-002
      0. 3.19148935e-002 0. 0. 0. 0. 0. 2.12765951e-002 0. 0. 0. 0. 0.
      1.06382975e-002 1.06382975e-002 0. 1.06382975e-002 1.06382975e-002
      0. 0. 0. 0. 0. 0. 0. 0. 1.06382975e-002 0. 0. 0. 0. 0.
      1.06382975e-002 0. 1.06382975e-002 0. 0. 0. 0. 0. 1.06382975e-002
      1.06382975e-002 0. 0. 0. 0. 0. 1.06382975e-002 0. 0. 0. 0. 0. 0.
      1.06382975e-002 0. 0. 0. 0. 1.06382975e-002 0. 1.06382975e-002 0.
      0. 0. 0. 0. 0. 0. 0. 0. 0. 0. 0. 0. 0. 0. 1.06382975e-002
      1.06382975e-002 0. 0. 0. 0. 0. 0. 0. 0. 0. 0. 0. 0. 0. 0. 0. 0. 0.
      1.06382975e-002 0. 1.06382975e-002 0. 0. 0. 0. 1.06382975e-002
      1.06382975e-002 0. 0. 0. 0. 0. 0. 0. 0. 0. 0. 0. 0. 0. 0.</_>
    <_>
      0. 0. 0. 0. 0. 0. 0. 0. 1.63934417e-002 0. 0. 1.63934417e-002 0.
      1.63934417e-002 0. 0. 0. 1.63934417e-002 0. 0. 0. 0. 0.
      1.63934417e-002 0. 0. 0. 0. 0. 0. 0. 0. 0. 0. 0. 0. 0. 0. 0. 0. 0.
      0. 0. 1.63934417e-002 0. 0. 1.63934417e-002 0. 0. 0.
      1.63934417e-002 0. 0. 0. 0. 0. 0. 0. 1.63934417e-002
      1.63934417e-002 0. 0. 0. 0. 0. 0. 0. 0. 0. 1.63934417e-002 0. 0.
      0. 0. 0. 1.63934417e-002 1.63934417e-002 0. 0. 1.63934417e-002
      1.63934417e-002 0. 0. 0. 0. 0. 0. 0. 1.63934417e-002 0. 0. 0. 0.
      0. 0. 0. 1.63934417e-002 0. 0. 0. 0. 0. 0. 0. 0. 0.
      1.63934417e-002 0. 0. 0. 0. 1.63934417e-002 1.63934417e-002 0.
      1.63934417e-002 0. 0. 0. 0. 0. 0. 0. 0. 0. 0. 0. 0. 0. 0. 0. 0. 0.
      1.63934417e-002 0. 0. 1.63934417e-002 0. 0. 0. 0. 1.63934417e-002
      1.63934417e-002 0. 0. 1.63934417e-002 0. 0. 0. 1.63934417e-002 0.
      0. 1.63934417e-002 0. 0. 1.63934417e-002 0. 0. 1.63934417e-002 0.
      0. 0. 0. 0. 0. 0. 0. 0. 0. 0. 0. 0. 0. 0. 0. 1.63934417e-002 0. 0.
      0. 0. 0. 0. 0. 0. 0. 1.63934417e-002 1.63934417e-002 0. 0. 0.
      3.27868834e-002 1.63934417e-002 0. 0. 0. 0. 1.63934417e-002 0. 0.
      0. 0. 0. 0. 0. 0. 0. 0. 0. 0. 0. 0. 0. 0. 0. 0. 0. 0. 0. 0. 0. 0.
      0. 0. 0. 0. 0. 0. 0. 0. 0. 0. 0. 0. 0. 0. 0. 0. 0. 0. 0.
      1.63934417e-002 0. 0. 0. 0. 0. 0. 0. 0. 0. 0. 0. 0. 0. 0.
      1.63934417e-002 0. 0. 0. 0. 0. 0. 0. 0. 0. 1.63934417e-002 0.
      1.63934417e-002 0. 1.63934417e-002 0. 0. 0. 0. 0. 1.63934417e-002
      0. 0. 0. 0. 0. 0. 0. 0. 1.63934417e-002 0. 0. 0. 0. 0. 0. 0. 0. 0.
      0. 0. 0. 0. 0. 1.63934417e-002 0. 0. 0. 0. 0. 0. 0. 0. 0. 0. 0. 0.
      0. 1.63934417e-002 0. 0. 0. 0. 0. 0. 1.63934417e-002
      1.63934417e-002 1.63934417e-002 0. 0. 0. 0. 0. 0. 0. 0. 0. 0. 0.
      0. 0. 0. 0. 0. 0. 1.63934417e-002 0. 0. 0. 0. 0. 0. 0.
      3.27868834e-002 0. 0. 0. 0. 0. 0. 0. 0. 1.63934417e-002 0. 0. 0.
      0. 0. 0. 0. 0. 0. 0. 0. 1.63934417e-002 0. 0. 0. 0. 0.
      1.63934417e-002 0. 0. 0. 0. 0. 0. 0. 0. 1.63934417e-002 0. 0. 0.
      0. 0. 0. 0. 3.27868834e-002 0. 0. 0. 1.63934417e-002 0.
      1.63934417e-002 1.63934417e-002 0.</_>
    <_>
      0. 0. 0. 0. 0. 0. 7.40740728e-003 0. 0. 7.40740728e-003 0. 0.
      7.40740728e-003 0. 0. 1.48148146e-002 7.40740728e-003 0. 0. 0. 0.
      7.40740728e-003 0. 0. 7.40740728e-003 0. 0. 0. 0. 7.40740728e-003
      0. 0. 0. 7.40740728e-003 0. 0. 0. 7.40740728e-003 0. 0. 0. 0. 0.
      0. 0. 7.40740728e-003 1.48148146e-002 1.48148146e-002 0. 0. 0.
      7.40740728e-003 0. 7.40740728e-003 0. 0. 0. 0. 0. 0.
      1.48148146e-002 7.40740728e-003 0. 0. 7.40740728e-003 0. 0. 0. 0.
      0. 7.40740728e-003 0. 0. 0. 7.40740728e-003 1.48148146e-002
      7.40740728e-003 0. 0. 7.40740728e-003 7.40740728e-003 0.
      7.40740728e-003 0. 7.40740728e-003 0. 1.48148146e-002 0.
      7.40740728e-003 7.40740728e-003 0. 0. 0. 7.40740728e-003 0. 0.
      7.40740728e-003 0. 0. 7.40740728e-003 0. 7.40740728e-003
      7.40740728e-003 0. 0. 0. 0. 1.48148146e-002 1.48148146e-002 0. 0.
      0. 0. 0. 7.40740728e-003 7.40740728e-003 0. 0. 0. 7.40740728e-003
      0. 0. 0. 0. 0. 0. 0. 0. 0. 7.40740728e-003 7.40740728e-003 0.
      7.40740728e-003 0. 0. 7.40740728e-003 7.40740728e-003 0. 0.
      7.40740728e-003 7.40740728e-003 0. 0. 0. 0. 0. 0. 7.40740728e-003
      0. 0. 0. 1.48148146e-002 0. 7.40740728e-003 0. 0. 0. 0.
      7.40740728e-003 0. 0. 0. 7.40740728e-003 0. 0. 1.48148146e-002 0.
      0. 0. 0. 0. 0. 0. 0. 0. 0. 0. 0. 0. 0. 0. 0. 0. 0. 0.
      7.40740728e-003 7.40740728e-003 0. 0. 7.40740728e-003 0.
      7.40740728e-003 0. 0. 0. 0. 7.40740728e-003 0. 0. 1.48148146e-002
      0. 0. 0. 0. 0. 0. 0. 0. 0. 0. 0. 0. 0. 7.40740728e-003 0. 0.
      7.40740728e-003 0. 0. 0. 0. 0. 7.40740728e-003 7.40740728e-003 0.
      7.40740728e-003 0. 0. 7.40740728e-003 0. 7.40740728e-003
      7.40740728e-003 0. 0. 1.48148146e-002 0. 0. 0. 0. 7.40740728e-003
      0. 0. 4.44444418e-002 7.40740728e-003 0. 0. 0. 0. 7.40740728e-003
      1.48148146e-002 0. 0. 0. 0. 0. 0. 7.40740728e-003 0. 0. 0.
      7.40740728e-003 0. 0. 0. 0. 0. 0. 0. 0. 0. 7.40740728e-003 0. 0.
      1.48148146e-002 1.48148146e-002 0. 0. 0. 7.40740728e-003 0. 0. 0.
      7.40740728e-003 1.48148146e-002 0. 0. 0. 0. 0. 0. 0. 0. 0. 0.
      7.40740728e-003 0. 7.40740728e-003 0. 0. 0. 0. 0. 0. 0. 0.
      7.40740728e-003 0. 7.40740728e-003 7.40740728e-003 0. 0. 0. 0. 0.
      0. 0. 7.40740728e-003 0. 0. 7.40740728e-003 0. 0. 7.40740728e-003
      7.40740728e-003 0. 0. 0. 0. 0. 1.48148146e-002 0. 7.40740728e-003
      0. 0. 0. 0. 0. 7.40740728e-003 7.40740728e-003 7.40740728e-003
      1.48148146e-002 0. 0. 0. 0. 0. 0. 7.40740728e-003 0. 0.
      7.40740728e-003 0. 0. 0. 0. 0. 7.40740728e-003 0. 0.
      7.40740728e-003 0. 7.40740728e-003 0. 0. 7.40740728e-003
      7.40740728e-003 7.40740728e-003 7.40740728e-003 1.48148146e-002 0.
      0. 0. 7.40740728e-003 0. 0. 0. 0. 0. 7.40740728e-003 0. 0.
      1.48148146e-002 0. 0. 0. 0. 0. 0. 0. 0. 0. 0. 0. 1.48148146e-002
      0. 0. 0. 0. 0. 0.</_>
    <_>
      0. 0. 0. 7.04225339e-003 0. 0. 1.40845068e-002 0. 0.
      7.04225339e-003 0. 0. 7.04225339e-003 0. 0. 1.40845068e-002 0.
      1.40845068e-002 0. 0. 0. 7.04225339e-003 0. 0. 7.04225339e-003 0.
      7.04225339e-003 7.04225339e-003 0. 0. 1.40845068e-002 0. 0. 0. 0.
      2.11267602e-002 0. 0. 0. 0. 0. 0. 0. 7.04225339e-003 0.
      7.04225339e-003 7.04225339e-003 7.04225339e-003 0. 0.
      2.11267602e-002 1.40845068e-002 0. 1.40845068e-002 0.
      7.04225339e-003 1.40845068e-002 0. 0. 0. 0. 0. 0. 7.04225339e-003
      0. 0. 0. 7.04225339e-003 7.04225339e-003 0. 1.40845068e-002 0.
      7.04225339e-003 7.04225339e-003 7.04225339e-003 0. 0. 0. 0.
      7.04225339e-003 0. 7.04225339e-003 0. 0. 0. 0. 0. 0. 0. 0. 0. 0.
      0. 7.04225339e-003 7.04225339e-003 7.04225339e-003 0. 0. 0.
      7.04225339e-003 0. 0. 7.04225339e-003 7.04225339e-003 0.
      7.04225339e-003 0. 0. 0. 0. 0. 7.04225339e-003 0. 0. 0. 0. 0. 0.
      7.04225339e-003 0. 7.04225339e-003 0. 0. 1.40845068e-002 0.
      7.04225339e-003 0. 0. 0. 7.04225339e-003 0. 0. 0. 0. 0.
      7.04225339e-003 7.04225339e-003 0. 7.04225339e-003 7.04225339e-003
      0. 7.04225339e-003 0. 0. 7.04225339e-003 0. 0. 0. 0. 0. 0.
      1.40845068e-002 2.11267602e-002 7.04225339e-003 0. 0.
      7.04225339e-003 7.04225339e-003 7.04225339e-003 0. 0.
      7.04225339e-003 7.04225339e-003 0. 7.04225339e-003 0.
      7.04225339e-003 0. 7.04225339e-003 7.04225339e-003 0. 0. 0. 0.
      7.04225339e-003 7.04225339e-003 0. 0. 0. 0. 0. 0. 7.04225339e-003
      0. 0. 0. 0. 0. 0. 7.04225339e-003 7.04225339e-003 7.04225339e-003
      7.04225339e-003 0. 7.04225339e-003 0. 0. 0. 0. 0. 0. 0. 0. 0.
      7.04225339e-003 0. 0. 0. 0. 0. 0. 0. 0. 0. 7.04225339e-003 0. 0.
      0. 1.40845068e-002 0. 0. 0. 0. 0. 0. 0. 0. 7.04225339e-003 0.
      7.04225339e-003 0. 7.04225339e-003 0. 0. 7.04225339e-003
      7.04225339e-003 7.04225339e-003 7.04225339e-003 0. 0.
      7.04225339e-003 7.04225339e-003 1.40845068e-002 0. 0. 0. 0.
      7.04225339e-003 0. 0. 7.04225339e-003 0. 0. 0. 0. 0. 0. 0. 0.
      7.04225339e-003 7.04225339e-003 0. 0. 7.04225339e-003 0. 0. 0. 0.
      0. 0. 0. 0. 7.04225339e-003 7.04225339e-003 0. 0. 0. 0. 0. 0. 0.
      0. 0. 0. 0. 7.04225339e-003 0. 0. 0. 0. 7.04225339e-003 0. 0. 0.
      0. 0. 0. 0. 0. 7.04225339e-003 0. 0. 0. 0. 0. 0. 0. 0. 0. 0.
      7.04225339e-003 0. 0. 0. 0. 0. 0. 7.04225339e-003 0. 0. 0. 0. 0.
      7.04225339e-003 7.04225339e-003 0. 7.04225339e-003 0. 0. 0.
      7.04225339e-003 7.04225339e-003 0. 0. 0. 7.04225339e-003
      1.40845068e-002 7.04225339e-003 0. 0. 7.04225339e-003 0. 0.
      7.04225339e-003 0. 0. 0. 0. 0. 0. 7.04225339e-003 0.
      7.04225339e-003 0. 0. 0. 0. 0. 0. 7.04225339e-003 0. 0.
      7.04225339e-003 0. 0. 0. 7.04225339e-003 0. 2.11267602e-002
      7.04225339e-003 0. 7.04225339e-003 0. 0. 0. 0. 0. 0. 0. 0. 0. 0.
      0. 7.04225339e-003 0. 7.04225339e-003 0. 0. 7.04225339e-003
      7.04225339e-003 7.04225339e-003 0. 0. 0. 7.04225339e-003
      7.04225339e-003 0. 0. 7.04225339e-003 7.04225339e-003</_>
    <_>
      0. 0. 0. 8.88888910e-003 0. 0. 0. 0. 0. 4.44444455e-003 0.
      4.44444455e-003 8.88888910e-003 0. 8.88888910e-003 0. 0. 0.
      8.88888910e-003 8.88888910e-003 8.88888910e-003 0. 0. 0.
      4.44444455e-003 4.44444455e-003 0. 0. 0. 4.44444455e-003
      8.88888910e-003 0. 0. 0. 0. 4.44444455e-003 0. 0. 4.44444455e-003
      0. 0. 0. 0. 0. 4.44444455e-003 4.44444455e-003 0. 8.88888910e-003
      1.33333337e-002 0. 4.44444455e-003 4.44444455e-003 4.44444455e-003
      0. 4.44444455e-003 0. 4.44444455e-003 0. 0. 8.88888910e-003 0.
      4.44444455e-003 0. 0. 0. 0. 8.88888910e-003 0. 0. 0. 0. 0.
      4.44444455e-003 4.44444455e-003 0. 0. 8.88888910e-003
      4.44444455e-003 0. 0. 0. 4.44444455e-003 4.44444455e-003
      8.88888910e-003 2.22222228e-002 4.44444455e-003 8.88888910e-003 0.
      4.44444455e-003 4.44444455e-003 0. 0. 0. 0. 0. 0. 4.44444455e-003
      0. 0. 0. 4.44444455e-003 0. 0. 1.33333337e-002 0. 4.44444455e-003
      0. 8.88888910e-003 4.44444455e-003 8.88888910e-003 0. 0. 0.
      4.44444455e-003 0. 0. 4.44444455e-003 8.88888910e-003 0.
      4.44444455e-003 8.88888910e-003 0. 0. 4.44444455e-003
      8.88888910e-003 0. 0. 0. 0. 0. 0. 4.44444455e-003 0. 0. 0. 0. 0.
      4.44444455e-003 1.33333337e-002 1.33333337e-002 0. 4.44444455e-003
      0. 0. 0. 0. 0. 0. 8.88888910e-003 0. 0. 0. 4.44444455e-003 0.
      4.44444455e-003 4.44444455e-003 0. 0. 0. 0. 1.33333337e-002 0. 0.
      0. 4.44444455e-003 4.44444455e-003 0. 0. 4.44444455e-003 0.
      4.44444455e-003 4.44444455e-003 4.44444455e-003 0. 0. 0. 0.
      4.44444455e-003 0. 0. 0. 4.44444455e-003 4.44444455e-003 0. 0. 0.
      0. 0. 8.88888910e-003 0. 0. 0. 4.44444455e-003 8.88888910e-003
      4.44444455e-003 0. 4.44444455e-003 1.33333337e-002 0. 0.
      8.88888910e-003 0. 0. 8.88888910e-003 0. 0. 8.88888910e-003 0. 0.
      0. 0. 4.44444455e-003 8.88888910e-003 0. 0. 0. 3.11111119e-002
      4.44444455e-003 4.44444455e-003 4.44444455e-003 4.44444455e-003 0.
      0. 0. 0. 0. 0. 0. 4.44444455e-003 1.33333337e-002 0. 0.
      4.44444455e-003 0. 0. 0. 8.88888910e-003 0. 4.44444455e-003
      4.44444455e-003 4.44444455e-003 4.44444455e-003 0. 0. 0. 0.
      4.44444455e-003 4.44444455e-003 0. 8.88888910e-003 4.44444455e-003
      0. 0. 0. 0. 0. 0. 8.88888910e-003 0. 0. 4.44444455e-003
      4.44444455e-003 0. 1.33333337e-002 0. 4.44444455e-003 0.
      4.44444455e-003 4.44444455e-003 0. 0. 0. 0. 0. 8.88888910e-003 0.
      0. 0. 0. 4.44444455e-003 0. 0. 1.33333337e-002 0. 4.44444455e-003
      0. 0. 4.44444455e-003 0. 0. 4.44444455e-003 0. 0. 0. 0. 0. 0.
      4.44444455e-003 0. 4.44444455e-003 0. 4.44444455e-003 0. 0. 0. 0.
      4.44444455e-003 8.88888910e-003 4.44444455e-003 0. 0. 0.
      8.88888910e-003 0. 0. 0. 4.44444455e-003 1.77777782e-002 0. 0.
      8.88888910e-003 4.44444455e-003 4.44444455e-003 0. 0.
      4.44444455e-003 0. 4.44444455e-003 4.44444455e-003 0.
      4.44444455e-003 0. 8.88888910e-003 0. 4.44444455e-003 0. 0. 0. 0.
      0. 4.44444455e-003 0. 0. 0. 0. 0. 0. 0. 0. 0. 1.33333337e-002
      4.44444455e-003 4.44444455e-003 4.44444455e-003 4.44444455e-003 0.
      4.44444455e-003 4.44444455e-003 4.44444455e-003 8.88888910e-003 0.
      4.44444455e-003 0. 0. 4.44444455e-003 0. 4.44444455e-003
      4.44444455e-003 0. 0. 0. 0. 4.44444455e-003 4.44444455e-003 0. 0.
      0. 0. 0. 0. 0. 0. 0. 4.44444455e-003 0. 0. 0. 4.44444455e-003
      8.88888910e-003 4.44444455e-003 0. 0. 8.88888910e-003 0. 0.
      4.44444455e-003 0. 0. 8.88888910e-003 8.88888910e-003</_>
    <_>
      0. 0. 0. 8.40336177e-003 0. 0. 0. 0. 0. 0. 0. 0. 8.40336177e-003
      0. 0. 0. 0. 1.68067235e-002 0. 0. 0. 8.40336177e-003
      8.40336177e-003 0. 0. 0. 0. 0. 0. 0. 0. 0. 0. 0. 8.40336177e-003
      0. 0. 0. 0. 0. 0. 0. 0. 0. 8.40336177e-003 0. 0. 0.
      8.40336177e-003 0. 3.36134471e-002 0. 0. 1.68067235e-002 0. 0. 0.
      0. 0. 0. 0. 8.40336177e-003 0. 0. 0. 1.68067235e-002 0. 0.
      8.40336177e-003 0. 8.40336177e-003 0. 0. 0. 0. 0. 8.40336177e-003
      0. 0. 0. 0. 0. 0. 0. 0. 0. 0. 0. 0. 0. 0. 8.40336177e-003
      8.40336177e-003 0. 0. 8.40336177e-003 0. 0. 0. 0. 0. 0.
      8.40336177e-003 0. 0. 1.68067235e-002 0. 1.68067235e-002 0.
      8.40336177e-003 8.40336177e-003 0. 0. 0. 8.40336177e-003 0. 0. 0.
      0. 0. 0. 0. 0. 8.40336177e-003 0. 0. 0. 1.68067235e-002
      8.40336177e-003 8.40336177e-003 0. 0. 0. 8.40336177e-003
      8.40336177e-003 8.40336177e-003 0. 0. 8.40336177e-003
      8.40336177e-003 8.40336177e-003 8.40336177e-003 0. 0.
      8.40336177e-003 0. 0. 0. 8.40336177e-003 0. 0. 0. 0.
      8.40336177e-003 0. 0. 8.40336177e-003 8.40336177e-003
      1.68067235e-002 0. 0. 0. 0. 0. 0. 0. 0. 0. 0. 0. 0. 0.
      8.40336177e-003 0. 8.40336177e-003 0. 0. 8.40336177e-003 0. 0. 0.
      0. 0. 0. 0. 0. 0. 0. 0. 8.40336177e-003 0. 0. 8.40336177e-003
      8.40336177e-003 8.40336177e-003 0. 8.40336177e-003 0.
      8.40336177e-003 0. 8.40336177e-003 0. 0. 0. 1.68067235e-002 0. 0.
      0. 0. 0. 0. 0. 0. 0. 8.40336177e-003 0. 0. 0. 1.68067235e-002
      8.40336177e-003 8.40336177e-003 0. 0. 8.40336177e-003 0. 0. 0. 0.
      0. 0. 0. 8.40336177e-003 0. 0. 8.40336177e-003 8.40336177e-003
      8.40336177e-003 0. 0. 0. 0. 8.40336177e-003 1.68067235e-002 0. 0.
      0. 8.40336177e-003 0. 8.40336177e-003 8.40336177e-003 0.
      1.68067235e-002 0. 0. 0. 0. 0. 8.40336177e-003 0. 8.40336177e-003
      0. 1.68067235e-002 0. 0. 0. 8.40336177e-003 0. 0. 0. 0. 0. 0. 0.
      8.40336177e-003 0. 0. 8.40336177e-003 0. 0. 0. 0. 8.40336177e-003
      8.40336177e-003 8.40336177e-003 0. 8.40336177e-003 0. 0. 0. 0.
      8.40336177e-003 0. 0. 8.40336177e-003 0. 0. 0. 0. 8.40336177e-003
      0. 0. 0. 0. 0. 0. 0. 0. 0. 0. 0. 0. 0. 1.68067235e-002 0. 0. 0. 0.
      0. 0. 8.40336177e-003 0. 0. 8.40336177e-003 2.52100863e-002 0. 0.
      0. 0. 0. 2.52100863e-002 0. 0. 0. 8.40336177e-003 0.
      1.68067235e-002 8.40336177e-003 0. 0. 0. 8.40336177e-003 0. 0. 0.
      0. 0. 0. 0. 0. 0. 0. 0. 0. 0. 0. 0. 0. 0. 8.40336177e-003
      8.40336177e-003 0. 0. 0. 0. 0. 0. 8.40336177e-003 0. 0. 0. 0.
      8.40336177e-003 8.40336177e-003 0. 0. 0. 0. 0. 0. 0. 0. 0. 0.
      8.40336177e-003 0. 0. 0. 8.40336177e-003 0. 0. 0. 0.
      8.40336177e-003 0. 0. 0. 0. 0. 0. 8.40336177e-003</_>
    <_>
      0. 0. 7.46268639e-003 7.46268639e-003 0. 0. 2.23880596e-002 0. 0.
      7.46268639e-003 0. 0. 0. 1.49253728e-002 0. 0. 0. 0. 0. 0. 0. 0.
      7.46268639e-003 0. 0. 1.49253728e-002 0. 0. 0. 0. 7.46268639e-003
      0. 0. 0. 0. 7.46268639e-003 7.46268639e-003 0. 0. 0. 0. 0.
      7.46268639e-003 7.46268639e-003 7.46268639e-003 0. 0.
      7.46268639e-003 0. 0. 0. 0. 7.46268639e-003 7.46268639e-003 0. 0.
      7.46268639e-003 7.46268639e-003 7.46268639e-003 0. 7.46268639e-003
      0. 0. 0. 0. 1.49253728e-002 0. 0. 0. 0. 0. 0. 0. 0.
      7.46268639e-003 7.46268639e-003 0. 0. 0. 7.46268639e-003
      7.46268639e-003 7.46268639e-003 0. 7.46268639e-003 0. 0.
      7.46268639e-003 0. 0. 0. 0. 0. 0. 7.46268639e-003 0.
      7.46268639e-003 0. 0. 0. 0. 7.46268639e-003 0. 0. 1.49253728e-002
      0. 0. 7.46268639e-003 1.49253728e-002 0. 0. 0. 0. 0.
      7.46268639e-003 0. 7.46268639e-003 0. 0. 0. 0. 0. 7.46268639e-003
      0. 0. 0. 7.46268639e-003 0. 7.46268639e-003 0. 0. 7.46268639e-003
      0. 7.46268639e-003 0. 0. 0. 0. 0. 0. 0. 7.46268639e-003 0. 0.
